FANN_FLO_2.1
num_layers=3
learning_rate=0.700000
connection_rate=1.000000
network_type=0
learning_momentum=0.000000
training_algorithm=3
train_error_function=1
train_stop_function=0
cascade_output_change_fraction=0.010000
quickprop_decay=-0.000100
quickprop_mu=1.750000
rprop_increase_factor=1.200000
rprop_decrease_factor=0.500000
rprop_delta_min=0.000000
rprop_delta_max=50.000000
rprop_delta_zero=0.100000
cascade_output_stagnation_epochs=12
cascade_candidate_change_fraction=0.010000
cascade_candidate_stagnation_epochs=12
cascade_max_out_epochs=150
cascade_min_out_epochs=50
cascade_max_cand_epochs=150
cascade_min_cand_epochs=50
cascade_num_candidate_groups=2
bit_fail_limit=3.49999994039535522461e-01
cascade_candidate_limit=1.00000000000000000000e+03
cascade_weight_multiplier=4.00000005960464477539e-01
cascade_activation_functions_count=10
cascade_activation_functions=3 5 7 8 10 11 14 15 16 17 
cascade_activation_steepnesses_count=4
cascade_activation_steepnesses=2.50000000000000000000e-01 5.00000000000000000000e-01 7.50000000000000000000e-01 1.00000000000000000000e+00 
layer_sizes=19 12 4 
scale_included=1
scale_mean_in=1.977424 407.904388 90.131477 85.215141 76.715805 69.092964 63.730412 57.982735 55.907040 60.543159 56.660027 48.337318 45.742363 46.915009 47.982735 49.918991 52.407703 57.920319 
scale_deviation_in=17.637814 712.704163 42.090164 43.237232 40.019119 37.630642 36.754280 34.069424 32.658611 37.647041 35.243702 28.629812 29.880768 31.992308 33.910297 35.172764 38.518654 41.412422 
scale_new_min_in=-0.500000 -0.500000 -0.500000 -0.500000 -0.500000 -0.500000 -0.500000 -0.500000 -0.500000 -0.500000 -0.500000 -0.500000 -0.500000 -0.500000 -0.500000 -0.500000 -0.500000 -0.500000 
scale_factor_in=0.500000 0.500000 0.500000 0.500000 0.500000 0.500000 0.500000 0.500000 0.500000 0.500000 0.500000 0.500000 0.500000 0.500000 0.500000 0.500000 0.500000 0.500000 
scale_mean_out=0.000000 0.000000 0.000000 
scale_deviation_out=1.000000 1.000000 1.000000 
scale_new_min_out=-1.000000 -1.000000 -1.000000 
scale_factor_out=1.000000 1.000000 1.000000 
neurons (num_inputs, activation_function, activation_steepness)=(0, 0, 0.00000000000000000000e+00) (0, 0, 0.00000000000000000000e+00) (0, 0, 0.00000000000000000000e+00) (0, 0, 0.00000000000000000000e+00) (0, 0, 0.00000000000000000000e+00) (0, 0, 0.00000000000000000000e+00) (0, 0, 0.00000000000000000000e+00) (0, 0, 0.00000000000000000000e+00) (0, 0, 0.00000000000000000000e+00) (0, 0, 0.00000000000000000000e+00) (0, 0, 0.00000000000000000000e+00) (0, 0, 0.00000000000000000000e+00) (0, 0, 0.00000000000000000000e+00) (0, 0, 0.00000000000000000000e+00) (0, 0, 0.00000000000000000000e+00) (0, 0, 0.00000000000000000000e+00) (0, 0, 0.00000000000000000000e+00) (0, 0, 0.00000000000000000000e+00) (0, 0, 0.00000000000000000000e+00) (19, 3, 5.00000000000000000000e-01) (19, 3, 5.00000000000000000000e-01) (19, 3, 5.00000000000000000000e-01) (19, 3, 5.00000000000000000000e-01) (19, 3, 5.00000000000000000000e-01) (19, 3, 5.00000000000000000000e-01) (19, 3, 5.00000000000000000000e-01) (19, 3, 5.00000000000000000000e-01) (19, 3, 5.00000000000000000000e-01) (19, 3, 5.00000000000000000000e-01) (19, 3, 5.00000000000000000000e-01) (0, 3, 0.00000000000000000000e+00) (12, 0, 5.00000000000000000000e-01) (12, 0, 5.00000000000000000000e-01) (12, 0, 5.00000000000000000000e-01) (0, 0, 0.00000000000000000000e+00) 
connections (connected_to_neuron, weight)=(0, 1.50000000000000000000e+03) (1, -5.87391901016235351562e+00) (2, -1.36081466674804687500e+01) (3, -5.16187286376953125000e+01) (4, 3.37944793701171875000e+01) (5, 3.65363121032714843750e+01) (6, 8.26773071289062500000e+00) (7, -1.32616033554077148438e+01) (8, -1.42732172012329101562e+01) (9, 5.42727546691894531250e+01) (10, 3.03999423980712890625e+00) (11, 1.25423212051391601562e+01) (12, -1.23113851547241210938e+01) (13, -9.51253414154052734375e+00) (14, -2.88111389160156250000e+02) (15, -1.59651002883911132812e+01) (16, 1.34252452850341796875e+01) (17, 1.14687910079956054688e+01) (18, -5.06976280212402343750e+01) (0, -3.64077575683593750000e+02) (1, -5.76059961318969726562e+00) (2, 1.40978136062622070312e+01) (3, 1.58277759552001953125e+01) (4, -1.58912506103515625000e+01) (5, -2.47366275787353515625e+01) (6, 1.17762145996093750000e+01) (7, 5.38210439682006835938e+00) (8, 2.43597164154052734375e+01) (9, 3.25729331970214843750e+01) (10, 2.12875423431396484375e+01) (11, -3.05799636840820312500e+01) (12, -3.37874984741210937500e+01) (13, 6.65423202514648437500e+00) (14, -1.18990623950958251953e+00) (15, 4.17877540588378906250e+01) (16, 5.50608749389648437500e+01) (17, 3.32495307922363281250e+01) (18, -1.81280639648437500000e+02) (0, 1.50000000000000000000e+03) (1, -1.49999963378906250000e+03) (2, -1.87315731048583984375e+01) (3, -4.48836374282836914062e+00) (4, 1.72962570190429687500e+02) (5, 4.81006561279296875000e+02) (6, 4.81640838623046875000e+02) (7, 6.47967910766601562500e+01) (8, 6.88169372558593750000e+02) (9, 4.64903625488281250000e+02) (10, 7.72588928222656250000e+02) (11, 5.80560119628906250000e+02) (12, -5.02318077087402343750e+01) (13, 3.41518630981445312500e+01) (14, 1.09721099853515625000e+02) (15, 2.36558410644531250000e+02) (16, 1.49999291992187500000e+03) (17, 2.53207092285156250000e+02) (18, -6.50566406250000000000e+01) (0, -9.11563873291015625000e+00) (1, -5.06565895080566406250e+01) (2, -1.00342321395874023438e+00) (3, 1.62431430816650390625e+01) (4, 1.23039960861206054688e+00) (5, 6.40174007415771484375e+00) (6, -1.77234725952148437500e+01) (7, -2.75736451148986816406e+00) (8, 2.35022811889648437500e+01) (9, -6.44518470764160156250e+00) (10, 1.72753262519836425781e+00) (11, -1.65777606964111328125e+01) (12, 1.16756725311279296875e+01) (13, 1.81723606586456298828e+00) (14, -5.16576170921325683594e-01) (15, 4.20202636718750000000e+00) (16, 1.66698799133300781250e+01) (17, 1.30134887695312500000e+01) (18, -2.68517246246337890625e+01) (0, -3.74481849670410156250e+01) (1, -1.50000000000000000000e+03) (2, 1.65164604187011718750e+01) (3, 4.09541664123535156250e+01) (4, -4.34765357971191406250e+01) (5, 4.86254081726074218750e+01) (6, -9.64531421661376953125e+00) (7, -3.46166572570800781250e+01) (8, 1.59309539794921875000e+02) (9, 5.11497741699218750000e+02) (10, 2.73593597412109375000e+02) (11, -5.19412803649902343750e+00) (12, 1.20307350158691406250e+01) (13, 7.19747467041015625000e+01) (14, 2.80813873291015625000e+02) (15, 3.38361244201660156250e+01) (16, 3.91004981994628906250e+01) (17, -3.23058853149414062500e+01) (18, 1.22398941040039062500e+02) (0, 5.17007064819335937500e+00) (1, -2.49485530853271484375e+01) (2, 1.74464378356933593750e+01) (3, -1.01975193023681640625e+01) (4, -4.80852584838867187500e+01) (5, 2.47173976898193359375e+01) (6, 1.12838888168334960938e+00) (7, 3.17257016897201538086e-01) (8, 1.08673791885375976562e+01) (9, 1.06707721948623657227e-01) (10, 3.59092545509338378906e+00) (11, 1.99634437561035156250e+01) (12, -1.78025074005126953125e+01) (13, 1.10018949508666992188e+01) (14, 9.80617165565490722656e-01) (15, 2.71583309173583984375e+01) (16, 3.89763307571411132812e+00) (17, 2.45514144897460937500e+01) (18, -4.50558547973632812500e+01) (0, 9.58314514160156250000e+01) (1, -1.27569417953491210938e+01) (2, 3.88327369689941406250e+01) (3, -1.00292739868164062500e+01) (4, 2.48512058258056640625e+01) (5, -2.81843471527099609375e+01) (6, 8.78124237060546875000e+00) (7, -1.01739292144775390625e+01) (8, -6.22534408569335937500e+01) (9, -6.35541267395019531250e+01) (10, -2.67121601104736328125e+01) (11, 4.14436817169189453125e+00) (12, -2.12283115386962890625e+01) (13, 3.28601837158203125000e+01) (14, 1.63712291717529296875e+01) (15, 1.49858875274658203125e+01) (16, -3.65072135925292968750e+01) (17, 2.54344406127929687500e+01) (18, -7.20204467773437500000e+01) (0, 8.46186981201171875000e+01) (1, -1.50000000000000000000e+03) (2, 1.50797317504882812500e+02) (3, 1.47771392822265625000e+02) (4, -1.71369659423828125000e+02) (5, 3.81445892333984375000e+02) (6, -7.67662734985351562500e+01) (7, 1.20168693542480468750e+02) (8, 2.07886611938476562500e+02) (9, 6.05302505493164062500e+01) (10, 3.47583679199218750000e+02) (11, 3.30126739501953125000e+02) (12, 2.68858718872070312500e+01) (13, 4.95903533935546875000e+02) (14, 1.03318066406250000000e+03) (15, -3.16286678314208984375e+01) (16, 9.19657135009765625000e+01) (17, 3.16372489929199218750e+01) (18, 7.97941467285156250000e+02) (0, -2.10489212036132812500e+02) (1, -2.30409641265869140625e+01) (2, 9.45549697875976562500e+01) (3, 1.61455200195312500000e+02) (4, 8.03902511596679687500e+01) (5, 6.11863565444946289062e+00) (6, 9.73468856811523437500e+01) (7, 1.79879348754882812500e+02) (8, 2.23488571166992187500e+02) (9, -1.90486312866210937500e+02) (10, 6.83000946044921875000e+01) (11, -2.76250324249267578125e+01) (12, -1.14072624206542968750e+02) (13, 9.39805374145507812500e+01) (14, -4.72221107482910156250e+01) (15, 3.94680213928222656250e+00) (16, 7.51711349487304687500e+01) (17, 1.32200897216796875000e+02) (18, -3.82889678955078125000e+02) (0, 4.12835578918457031250e+01) (1, -1.50000000000000000000e+03) (2, 3.88035850524902343750e+01) (3, 1.16966064453125000000e+02) (4, 9.78186340332031250000e+01) (5, 2.14791992187500000000e+02) (6, 2.71398811340332031250e+01) (7, 1.60426006317138671875e+01) (8, 2.17823333740234375000e+02) (9, -8.89021682739257812500e+01) (10, 1.27594329833984375000e+02) (11, 8.58432693481445312500e+01) (12, 2.65122623443603515625e+01) (13, 8.95244827270507812500e+01) (14, 2.54139328002929687500e+02) (15, 1.82130203247070312500e+01) (16, 1.97059879302978515625e+01) (17, 4.47996559143066406250e+01) (18, 1.11854637145996093750e+02) (0, 3.72861938476562500000e+01) (1, -2.84130592346191406250e+01) (2, -6.48046340942382812500e+01) (3, 7.15384292602539062500e+00) (4, -2.76501178741455078125e+01) (5, 2.01742687225341796875e+01) (6, 7.55482435226440429688e+00) (7, 2.16116199493408203125e+01) (8, 6.30026931762695312500e+01) (9, -1.54003341674804687500e+02) (10, -4.99297294616699218750e+01) (11, -1.99474830627441406250e+01) (12, -2.09894123077392578125e+01) (13, 1.34182748794555664062e+01) (14, 5.62302827835083007812e-01) (15, 7.44975814819335937500e+01) (16, -2.10644721984863281250e+01) (17, 5.52749786376953125000e+01) (18, -1.27643371582031250000e+02) (19, -1.06046572327613830566e-02) (20, 4.20381247997283935547e-01) (21, 2.47121527791023254395e-01) (22, 5.07805943489074707031e-01) (23, 9.53833961486816406250e+00) (24, 3.06510627269744873047e-01) (25, 7.24601089954376220703e-01) (26, 1.23963165283203125000e+02) (27, 1.09230494499206542969e+00) (28, 4.78525047302246093750e+01) (29, 3.15024971961975097656e-01) (30, 5.38896942138671875000e+01) (19, 6.10188722610473632812e-01) (20, -7.09550399780273437500e+01) (21, -1.68713700771331787109e+00) (22, 7.04825057983398437500e+01) (23, 1.72890365123748779297e-01) (24, 7.33611068725585937500e+01) (25, 7.16944274902343750000e+01) (26, 2.78371959924697875977e-01) (27, -1.38987274169921875000e+02) (28, -3.39464902877807617188e-01) (29, -7.27898254394531250000e+01) (30, -3.80202084779739379883e-02) (19, -3.69666337966918945312e+00) (20, 6.83411121368408203125e+00) (21, -2.42660498619079589844e+00) (22, 1.14339137077331542969e+00) (23, 4.83473002910614013672e-01) (24, 1.16337966918945312500e+00) (25, -4.29434347152709960938e+00) (26, -2.37697362899780273438e-02) (27, 2.55878543853759765625e+00) (28, -5.22771656513214111328e-01) (29, -3.46187353134155273438e+00) (30, 1.93510913848876953125e+00) 
