FANN_FLO_2.1
num_layers=3
learning_rate=0.700000
connection_rate=1.000000
network_type=0
learning_momentum=0.000000
training_algorithm=3
train_error_function=1
train_stop_function=0
cascade_output_change_fraction=0.010000
quickprop_decay=-0.000100
quickprop_mu=1.750000
rprop_increase_factor=1.200000
rprop_decrease_factor=0.500000
rprop_delta_min=0.000000
rprop_delta_max=50.000000
rprop_delta_zero=0.100000
cascade_output_stagnation_epochs=12
cascade_candidate_change_fraction=0.010000
cascade_candidate_stagnation_epochs=12
cascade_max_out_epochs=150
cascade_min_out_epochs=50
cascade_max_cand_epochs=150
cascade_min_cand_epochs=50
cascade_num_candidate_groups=2
bit_fail_limit=3.49999994039535522461e-01
cascade_candidate_limit=1.00000000000000000000e+03
cascade_weight_multiplier=4.00000005960464477539e-01
cascade_activation_functions_count=10
cascade_activation_functions=3 5 7 8 10 11 14 15 16 17 
cascade_activation_steepnesses_count=4
cascade_activation_steepnesses=2.50000000000000000000e-01 5.00000000000000000000e-01 7.50000000000000000000e-01 1.00000000000000000000e+00 
layer_sizes=19 11 4 
scale_included=1
scale_mean_in=1.977424 407.904388 90.131477 85.215141 76.715805 69.092964 63.730412 57.982735 55.907040 60.543159 56.660027 48.337318 45.742363 46.915009 47.982735 49.918991 52.407703 57.920319 
scale_deviation_in=17.637814 712.704163 42.090164 43.237232 40.019119 37.630642 36.754280 34.069424 32.658611 37.647041 35.243702 28.629812 29.880768 31.992308 33.910297 35.172764 38.518654 41.412422 
scale_new_min_in=-0.500000 -0.500000 -0.500000 -0.500000 -0.500000 -0.500000 -0.500000 -0.500000 -0.500000 -0.500000 -0.500000 -0.500000 -0.500000 -0.500000 -0.500000 -0.500000 -0.500000 -0.500000 
scale_factor_in=0.500000 0.500000 0.500000 0.500000 0.500000 0.500000 0.500000 0.500000 0.500000 0.500000 0.500000 0.500000 0.500000 0.500000 0.500000 0.500000 0.500000 0.500000 
scale_mean_out=0.000000 0.000000 0.000000 
scale_deviation_out=1.000000 1.000000 1.000000 
scale_new_min_out=-1.000000 -1.000000 -1.000000 
scale_factor_out=1.000000 1.000000 1.000000 
neurons (num_inputs, activation_function, activation_steepness)=(0, 0, 0.00000000000000000000e+00) (0, 0, 0.00000000000000000000e+00) (0, 0, 0.00000000000000000000e+00) (0, 0, 0.00000000000000000000e+00) (0, 0, 0.00000000000000000000e+00) (0, 0, 0.00000000000000000000e+00) (0, 0, 0.00000000000000000000e+00) (0, 0, 0.00000000000000000000e+00) (0, 0, 0.00000000000000000000e+00) (0, 0, 0.00000000000000000000e+00) (0, 0, 0.00000000000000000000e+00) (0, 0, 0.00000000000000000000e+00) (0, 0, 0.00000000000000000000e+00) (0, 0, 0.00000000000000000000e+00) (0, 0, 0.00000000000000000000e+00) (0, 0, 0.00000000000000000000e+00) (0, 0, 0.00000000000000000000e+00) (0, 0, 0.00000000000000000000e+00) (0, 0, 0.00000000000000000000e+00) (19, 3, 5.00000000000000000000e-01) (19, 3, 5.00000000000000000000e-01) (19, 3, 5.00000000000000000000e-01) (19, 3, 5.00000000000000000000e-01) (19, 3, 5.00000000000000000000e-01) (19, 3, 5.00000000000000000000e-01) (19, 3, 5.00000000000000000000e-01) (19, 3, 5.00000000000000000000e-01) (19, 3, 5.00000000000000000000e-01) (19, 3, 5.00000000000000000000e-01) (0, 3, 0.00000000000000000000e+00) (11, 0, 5.00000000000000000000e-01) (11, 0, 5.00000000000000000000e-01) (11, 0, 5.00000000000000000000e-01) (0, 0, 0.00000000000000000000e+00) 
connections (connected_to_neuron, weight)=(0, -5.71057853698730468750e+01) (1, -1.50000000000000000000e+03) (2, -2.57166442871093750000e+01) (3, 2.35807056427001953125e+01) (4, -1.92541236877441406250e+01) (5, -2.54953975677490234375e+01) (6, -1.10935089111328125000e+02) (7, 2.84499397277832031250e+01) (8, -7.64979171752929687500e+01) (9, -4.20048255920410156250e+01) (10, 1.12594802856445312500e+02) (11, -1.75655975341796875000e+02) (12, 1.69141021728515625000e+02) (13, 2.42148876190185546875e+01) (14, -4.09000015258789062500e+01) (15, -1.84967407226562500000e+02) (16, 3.09128570556640625000e+01) (17, 2.07012252807617187500e+02) (18, -3.49403228759765625000e+01) (0, 1.86107425689697265625e+01) (1, -1.50000000000000000000e+03) (2, -1.30934371948242187500e+01) (3, 1.72257061004638671875e+01) (4, 1.65154876708984375000e+01) (5, -1.12629473209381103516e+00) (6, 1.96305007934570312500e+01) (7, -2.16785621643066406250e+00) (8, -1.85565719604492187500e+01) (9, -5.22026729583740234375e+00) (10, -2.50094852447509765625e+01) (11, -3.06106357574462890625e+01) (12, -2.17973537445068359375e+01) (13, 1.35537624359130859375e+01) (14, -5.59534502029418945312e+00) (15, 2.02531032562255859375e+01) (16, 3.20442771911621093750e+01) (17, 1.11758279800415039062e+01) (18, -4.55044952392578125000e+02) (0, -9.44888229370117187500e+01) (1, -1.22072166442871093750e+02) (2, 1.44378852844238281250e+01) (3, 3.16553535461425781250e+01) (4, -4.62893772125244140625e+00) (5, -3.52436780929565429688e+00) (6, -1.57578957080841064453e+00) (7, 3.99073028564453125000e+01) (8, 3.13720273971557617188e+00) (9, 9.04030859470367431641e-01) (10, 4.89384603500366210938e+00) (11, -8.01801013946533203125e+00) (12, -1.51581869125366210938e+01) (13, 2.29926185607910156250e+01) (14, -1.36264266967773437500e+01) (15, 2.14732341766357421875e+01) (16, 4.64538841247558593750e+01) (17, -5.14157562255859375000e+01) (18, -8.04382476806640625000e+01) (0, -8.05325851440429687500e+01) (1, -1.50000000000000000000e+03) (2, -7.68065719604492187500e+01) (3, 3.10657062530517578125e+01) (4, -6.89524002075195312500e+01) (5, -5.81122779846191406250e+01) (6, -1.48964965820312500000e+02) (7, 3.81538486480712890625e+00) (8, 3.63302001953125000000e+02) (9, 7.35095062255859375000e+01) (10, 3.70688171386718750000e+02) (11, 2.16259857177734375000e+02) (12, 3.06068725585937500000e+01) (13, -3.36760063171386718750e+01) (14, -7.62525558471679687500e+01) (15, -1.94436920166015625000e+02) (16, -9.32473220825195312500e+01) (17, -9.11275787353515625000e+01) (18, -2.17189006805419921875e+01) (0, -1.50000000000000000000e+03) (1, 1.50000000000000000000e+03) (2, 6.47827941894531250000e+02) (3, -1.64672546386718750000e+01) (4, 8.30479621887207031250e-01) (5, 1.56040435791015625000e+02) (6, 3.94910003662109375000e+02) (7, 3.37590637207031250000e+02) (8, 4.75349884033203125000e+02) (9, -1.79983840942382812500e+02) (10, -2.02980026245117187500e+02) (11, -5.02827972412109375000e+02) (12, 3.41291259765625000000e+02) (13, 1.24297859191894531250e+02) (14, 1.65260940551757812500e+02) (15, 7.01468566894531250000e+02) (16, -9.11123847961425781250e+00) (17, -1.59395019531250000000e+02) (18, 7.70538759231567382812e+00) (0, 1.22420859336853027344e+00) (1, -3.32966400146484375000e+02) (2, 5.03713703155517578125e+00) (3, -4.26243209838867187500e+00) (4, 6.63632011413574218750e+00) (5, -3.44075155258178710938e+00) (6, 4.86733376979827880859e-01) (7, 5.81094789505004882812e+00) (8, 4.05874729156494140625e+00) (9, -7.27890729904174804688e+00) (10, 9.76938784122467041016e-01) (11, 4.30225849151611328125e+00) (12, 7.07380294799804687500e+00) (13, -2.42729926109313964844e+00) (14, 2.00711131095886230469e+00) (15, -3.47707837820053100586e-01) (16, 8.63022136688232421875e+00) (17, -1.93271350860595703125e+00) (18, -9.01234664916992187500e+01) (0, -3.85996665954589843750e+01) (1, -1.50000000000000000000e+03) (2, 1.10503746032714843750e+02) (3, 2.11697082519531250000e+02) (4, -2.45929298400878906250e+01) (5, -2.90632171630859375000e+01) (6, -9.93291625976562500000e+01) (7, -3.18562255859375000000e+02) (8, -1.46150527954101562500e+02) (9, 6.45784835815429687500e+01) (10, 5.38155578613281250000e+02) (11, -7.23893127441406250000e+01) (12, -1.96166580200195312500e+02) (13, 1.18890502929687500000e+02) (14, -5.65671615600585937500e+01) (15, -3.32067626953125000000e+02) (16, -4.95725021362304687500e+01) (17, 4.68456542968750000000e+02) (18, 3.49895721435546875000e+02) (0, 2.99573535919189453125e+01) (1, -8.12251892089843750000e+01) (2, 9.41848850250244140625e+00) (3, -6.87152922153472900391e-01) (4, -1.68229293823242187500e+01) (5, 1.44208059310913085938e+01) (6, 2.90817093849182128906e+00) (7, 3.23458528518676757812e+00) (8, 7.52385139465332031250e+00) (9, -4.03391647338867187500e+00) (10, -4.78720188140869140625e+00) (11, -2.33983182907104492188e+00) (12, 4.67914491891860961914e-01) (13, 5.05363178253173828125e+00) (14, 3.84862041473388671875e+00) (15, 8.96115493774414062500e+00) (16, -1.56571378707885742188e+01) (17, 7.72052669525146484375e+00) (18, -3.29166221618652343750e+01) (0, 1.95706848144531250000e+02) (1, -2.11431030273437500000e+02) (2, -8.50992584228515625000e+01) (3, 1.87974044799804687500e+02) (4, 3.84421295166015625000e+02) (5, 3.59695777893066406250e+01) (6, 1.14665939331054687500e+02) (7, 2.98239746093750000000e+02) (8, 3.00479736328125000000e+02) (9, -2.09155960083007812500e+01) (10, -4.46278076171875000000e+01) (11, 4.82893981933593750000e+01) (12, -2.76794281005859375000e+02) (13, 7.10487060546875000000e+01) (14, -3.34962005615234375000e+01) (15, 1.58071792602539062500e+02) (16, -5.75389938354492187500e+01) (17, -5.18944473266601562500e+01) (18, -3.89221954345703125000e+02) (0, 1.50000000000000000000e+03) (1, 1.50000000000000000000e+03) (2, 7.07583129882812500000e+02) (3, 1.83758895874023437500e+02) (4, 1.01119337081909179688e+01) (5, -9.96039672851562500000e+02) (6, 2.94241619110107421875e+01) (7, 2.67089118957519531250e+01) (8, -3.26881317138671875000e+02) (9, 3.10238525390625000000e+02) (10, 2.13272094726562500000e+02) (11, 3.90434783935546875000e+02) (12, -1.04984313964843750000e+03) (13, 9.76852722167968750000e+02) (14, -1.32368688964843750000e+03) (15, -6.64247131347656250000e+02) (16, 1.40501525878906250000e+03) (17, 6.35116043090820312500e+01) (18, -4.29227447509765625000e+01) (19, 3.37237892150878906250e+01) (20, 2.93140678405761718750e+01) (21, 2.64488220214843750000e+00) (22, 2.94019832611083984375e+01) (23, -2.49277687072753906250e+00) (24, 4.59161233901977539062e+00) (25, 1.12871200561523437500e+02) (26, 1.47793304920196533203e+00) (27, -2.30127215385437011719e-01) (28, -2.43711996078491210938e+00) (29, 5.81433372497558593750e+01) (19, 2.79342800378799438477e-01) (20, -6.08180820941925048828e-01) (21, -7.38024597167968750000e+01) (22, -1.07806229591369628906e+00) (23, 8.95986020565032958984e-01) (24, 7.23057479858398437500e+01) (25, 5.37287652492523193359e-01) (26, 7.02207946777343750000e+01) (27, -1.40114746093750000000e+02) (28, 5.19482553005218505859e-01) (29, -1.26543641090393066406e+00) (19, -9.58849370479583740234e-01) (20, -2.11864757537841796875e+00) (21, 7.50947093963623046875e+00) (22, -4.97245132923126220703e-01) (23, 3.75910687446594238281e+00) (24, -1.06726849079132080078e+00) (25, 7.74617135524749755859e-01) (26, -5.52214145660400390625e+00) (27, -2.58546280860900878906e+00) (28, -3.71665692329406738281e+00) (29, 7.19304502010345458984e-01) 
