FANN_FLO_2.1
num_layers=3
learning_rate=0.900000
connection_rate=1.000000
network_type=0
learning_momentum=0.000000
training_algorithm=2
train_error_function=1
train_stop_function=0
cascade_output_change_fraction=0.010000
quickprop_decay=-0.000100
quickprop_mu=1.750000
rprop_increase_factor=1.200000
rprop_decrease_factor=0.500000
rprop_delta_min=0.000000
rprop_delta_max=50.000000
rprop_delta_zero=0.100000
cascade_output_stagnation_epochs=12
cascade_candidate_change_fraction=0.010000
cascade_candidate_stagnation_epochs=12
cascade_max_out_epochs=150
cascade_min_out_epochs=50
cascade_max_cand_epochs=150
cascade_min_cand_epochs=50
cascade_num_candidate_groups=2
bit_fail_limit=3.49999994039535522461e-01
cascade_candidate_limit=1.00000000000000000000e+03
cascade_weight_multiplier=4.00000005960464477539e-01
cascade_activation_functions_count=10
cascade_activation_functions=3 5 7 8 10 11 14 15 16 17 
cascade_activation_steepnesses_count=4
cascade_activation_steepnesses=2.50000000000000000000e-01 5.00000000000000000000e-01 7.50000000000000000000e-01 1.00000000000000000000e+00 
layer_sizes=19 13 4 
scale_included=1
scale_mean_in=1.977424 407.904388 90.131477 85.215141 76.715805 69.092964 63.730412 57.982735 55.907040 60.543159 56.660027 48.337318 45.742363 46.915009 47.982735 49.918991 52.407703 57.920319 
scale_deviation_in=17.637814 712.704163 42.090164 43.237232 40.019119 37.630642 36.754280 34.069424 32.658611 37.647041 35.243702 28.629812 29.880768 31.992308 33.910297 35.172764 38.518654 41.412422 
scale_new_min_in=-0.500000 -0.500000 -0.500000 -0.500000 -0.500000 -0.500000 -0.500000 -0.500000 -0.500000 -0.500000 -0.500000 -0.500000 -0.500000 -0.500000 -0.500000 -0.500000 -0.500000 -0.500000 
scale_factor_in=0.500000 0.500000 0.500000 0.500000 0.500000 0.500000 0.500000 0.500000 0.500000 0.500000 0.500000 0.500000 0.500000 0.500000 0.500000 0.500000 0.500000 0.500000 
scale_mean_out=99.051796 3.021248 -0.390438 
scale_deviation_out=35.590256 39.711765 3.278807 
scale_new_min_out=-0.500000 -0.500000 -0.500000 
scale_factor_out=0.500000 0.500000 0.500000 
neurons (num_inputs, activation_function, activation_steepness)=(0, 0, 0.00000000000000000000e+00) (0, 0, 0.00000000000000000000e+00) (0, 0, 0.00000000000000000000e+00) (0, 0, 0.00000000000000000000e+00) (0, 0, 0.00000000000000000000e+00) (0, 0, 0.00000000000000000000e+00) (0, 0, 0.00000000000000000000e+00) (0, 0, 0.00000000000000000000e+00) (0, 0, 0.00000000000000000000e+00) (0, 0, 0.00000000000000000000e+00) (0, 0, 0.00000000000000000000e+00) (0, 0, 0.00000000000000000000e+00) (0, 0, 0.00000000000000000000e+00) (0, 0, 0.00000000000000000000e+00) (0, 0, 0.00000000000000000000e+00) (0, 0, 0.00000000000000000000e+00) (0, 0, 0.00000000000000000000e+00) (0, 0, 0.00000000000000000000e+00) (0, 0, 0.00000000000000000000e+00) (19, 3, 5.00000000000000000000e-01) (19, 3, 5.00000000000000000000e-01) (19, 3, 5.00000000000000000000e-01) (19, 3, 5.00000000000000000000e-01) (19, 3, 5.00000000000000000000e-01) (19, 3, 5.00000000000000000000e-01) (19, 3, 5.00000000000000000000e-01) (19, 3, 5.00000000000000000000e-01) (19, 3, 5.00000000000000000000e-01) (19, 3, 5.00000000000000000000e-01) (19, 3, 5.00000000000000000000e-01) (19, 3, 5.00000000000000000000e-01) (0, 3, 0.00000000000000000000e+00) (13, 0, 5.00000000000000000000e-01) (13, 0, 5.00000000000000000000e-01) (13, 0, 1.00000001490116119385e-01) (0, 0, 0.00000000000000000000e+00) 
connections (connected_to_neuron, weight)=(0, 5.31581401824951171875e-01) (1, 1.37607872486114501953e+00) (2, -2.13023964315652847290e-02) (3, -1.83888450264930725098e-01) (4, 1.32041409611701965332e-01) (5, 2.20258563756942749023e-01) (6, 2.00175136327743530273e-01) (7, -2.02163547277450561523e-01) (8, -4.08013761043548583984e-02) (9, -6.81970864534378051758e-02) (10, 1.98572814464569091797e-01) (11, 9.98532921075820922852e-02) (12, -2.16940119862556457520e-01) (13, 3.52795124053955078125e-01) (14, -8.93670395016670227051e-02) (15, -2.85326205193996429443e-02) (16, 6.00603297352790832520e-02) (17, -2.96372503042221069336e-01) (18, -1.64355725049972534180e-01) (0, 1.01650590896606445312e+01) (1, -2.01404705047607421875e+01) (2, -3.31216645240783691406e+00) (3, 1.00475435256958007812e+01) (4, -5.82569789886474609375e+00) (5, 8.72391223907470703125e-01) (6, -1.67217521667480468750e+01) (7, -1.29251766204833984375e+00) (8, 1.73666983842849731445e-01) (9, -2.48653960227966308594e+00) (10, 1.49470624923706054688e+01) (11, -6.04874324798583984375e+00) (12, 1.51747684478759765625e+01) (13, -3.74790382385253906250e+00) (14, -5.86324393749237060547e-01) (15, -5.21133232116699218750e+00) (16, -4.03194999694824218750e+00) (17, 3.27979922294616699219e+00) (18, 1.57482013702392578125e+01) (0, -1.48898661136627197266e+00) (1, 1.81128048896789550781e+00) (2, 7.00500085949897766113e-02) (3, -1.39909923076629638672e-01) (4, 5.71977123618125915527e-02) (5, 4.37260791659355163574e-02) (6, 1.74094662070274353027e-01) (7, -8.52631628513336181641e-02) (8, -4.77022677659988403320e-02) (9, 4.45162598043680191040e-03) (10, 1.85325518250465393066e-02) (11, 3.75445261597633361816e-02) (12, -8.12567472457885742188e-02) (13, 1.14923320710659027100e-01) (14, -9.83313471078872680664e-03) (15, 4.37621474266052246094e-02) (16, -2.81420703977346420288e-02) (17, -1.13517984747886657715e-01) (18, -1.47463929653167724609e+00) (0, 6.57495307922363281250e+00) (1, -1.51199436187744140625e+01) (2, 3.36968922615051269531e+00) (3, -2.04608559608459472656e+00) (4, 1.91451191902160644531e+00) (5, -1.96656143665313720703e+00) (6, 4.88741874694824218750e+00) (7, 1.34491646289825439453e+00) (8, -2.82034516334533691406e+00) (9, -4.62446165084838867188e+00) (10, -1.46852314472198486328e+00) (11, 2.08292317390441894531e+00) (12, -1.40491735935211181641e+00) (13, -1.68669152259826660156e+00) (14, 9.55778121948242187500e-01) (15, 5.71392595767974853516e-01) (16, -2.60888361930847167969e+00) (17, -1.10002405941486358643e-01) (18, -8.82001304626464843750e+00) (0, 9.10423469543457031250e+00) (1, 2.02017536163330078125e+01) (2, 1.14124937057495117188e+01) (3, -6.26601028442382812500e+00) (4, 9.86728000640869140625e+00) (5, -2.19285678863525390625e+00) (6, 4.26659545898437500000e+01) (7, -2.46804065704345703125e+01) (8, 3.57426553964614868164e-01) (9, -1.97556571960449218750e+01) (10, -2.08650131225585937500e+01) (11, 1.20361614227294921875e+01) (12, -3.75457024574279785156e+00) (13, -2.57520771026611328125e+00) (14, 7.10017538070678710938e+00) (15, 2.38436579704284667969e+00) (16, 3.15660934448242187500e+01) (17, -6.31840467453002929688e+00) (18, -1.02293491363525390625e+01) (0, 2.20853919982910156250e+01) (1, -5.11444711685180664062e+00) (2, 3.07552337646484375000e+01) (3, 4.25475168228149414062e+00) (4, -1.01740427017211914062e+01) (5, 2.20287723541259765625e+01) (6, -5.52965211868286132812e+00) (7, 1.25082740783691406250e+01) (8, -2.18939037322998046875e+01) (9, 1.77655200958251953125e+01) (10, 1.14620513916015625000e+01) (11, -1.33543472290039062500e+01) (12, -1.16108751296997070312e+01) (13, 1.49626522064208984375e+01) (14, 5.58452796936035156250e+00) (15, 2.01417756080627441406e+00) (16, 5.70995368957519531250e+01) (17, 7.59185333251953125000e+01) (18, -5.17197608947753906250e+01) (0, -3.04293125867843627930e-01) (1, -1.56469821929931640625e+00) (2, 1.63271222263574600220e-02) (3, -2.78605371713638305664e-01) (4, 1.86654761433601379395e-01) (5, 2.71696180105209350586e-01) (6, 2.95975983142852783203e-01) (7, -3.46119195222854614258e-01) (8, -2.79096849262714385986e-02) (9, -5.80203570425510406494e-02) (10, 2.16610401868820190430e-01) (11, 1.14773266017436981201e-01) (12, -2.58957654237747192383e-01) (13, 4.06876266002655029297e-01) (14, -1.09754584729671478271e-01) (15, -2.38222088664770126343e-02) (16, 7.74934068322181701660e-02) (17, -3.67597013711929321289e-01) (18, 7.52854585647583007812e-01) (0, 1.38826417922973632812e+00) (1, -2.04636836051940917969e+00) (2, -1.76987890154123306274e-02) (3, 5.60110844671726226807e-02) (4, -1.18115460500121116638e-02) (5, -1.36716932058334350586e-01) (6, -8.37695300579071044922e-02) (7, 1.84441789984703063965e-01) (8, -9.52817592769861221313e-03) (9, 7.84558523446321487427e-03) (10, -7.48446285724639892578e-02) (11, -4.21984642744064331055e-02) (12, 7.53903836011886596680e-02) (13, -8.55770483613014221191e-02) (14, 2.00521759688854217529e-02) (15, -1.77615433931350708008e-02) (16, 1.30926733836531639099e-02) (17, 1.30446046590805053711e-01) (18, -2.47195839881896972656e+00) (0, -6.59622049331665039062e+00) (1, -3.77092146873474121094e+00) (2, -1.35273313522338867188e+00) (3, 2.38867849111557006836e-02) (4, 8.97372186183929443359e-01) (5, -4.43756915628910064697e-02) (6, 3.73467516899108886719e+00) (7, 1.62873908877372741699e-01) (8, -1.17973315715789794922e+00) (9, -2.00120139122009277344e+00) (10, 3.83137297630310058594e+00) (11, -1.42307066917419433594e+00) (12, -4.28059279918670654297e-01) (13, 1.73331308364868164062e+00) (14, 1.96225956082344055176e-01) (15, -1.43177136778831481934e-01) (16, 4.99421417713165283203e-01) (17, 2.01016139984130859375e+00) (18, -4.75429010391235351562e+00) (0, 1.14086980819702148438e+01) (1, -6.52098226547241210938e+00) (2, -1.94434952735900878906e+00) (3, 7.06882667541503906250e+00) (4, 2.46030703186988830566e-01) (5, 1.96378555297851562500e+01) (6, 6.15486240386962890625e+00) (7, 6.13424396514892578125e+00) (8, -4.02634561061859130859e-01) (9, 1.02652654647827148438e+01) (10, -3.95536327362060546875e+00) (11, -8.78708839416503906250e+00) (12, 1.61206781864166259766e+00) (13, 3.52496004104614257812e+00) (14, 4.71307897567749023438e+00) (15, -9.29987716674804687500e+00) (16, 3.76533961296081542969e+00) (17, -3.99794411659240722656e+00) (18, -1.51602354049682617188e+01) (0, -2.00609421730041503906e+00) (1, -9.21700191497802734375e+00) (2, -7.09059059619903564453e-01) (3, 1.80603289604187011719e+00) (4, -1.09434723854064941406e+00) (5, 6.05654621124267578125e+00) (6, 7.05703198909759521484e-01) (7, 1.59546196460723876953e-01) (8, 1.15556550025939941406e+00) (9, 3.93773287534713745117e-01) (10, 2.06688070297241210938e+00) (11, 1.74047958850860595703e+00) (12, -3.50162833929061889648e-01) (13, 2.36292767524719238281e+00) (14, 5.39899051189422607422e-01) (15, -1.14821016788482666016e+00) (16, 2.61003851890563964844e+00) (17, -2.51143193244934082031e+00) (18, -5.65534782409667968750e+00) (0, 6.21257352828979492188e+00) (1, -2.77383506298065185547e-01) (2, 1.54759359359741210938e+01) (3, 1.36026155948638916016e+00) (4, 1.02839589118957519531e+00) (5, 1.87035310268402099609e+00) (6, 2.80787140130996704102e-01) (7, -4.81849002838134765625e+00) (8, 4.08387660980224609375e-01) (9, -2.23745608329772949219e+00) (10, -1.71992111206054687500e+00) (11, 7.80860662460327148438e+00) (12, 1.11512506008148193359e+00) (13, -3.78383278846740722656e+00) (14, 5.48999547958374023438e-01) (15, -2.83093237876892089844e+00) (16, 3.08016347885131835938e+00) (17, 6.74966001510620117188e+00) (18, -8.58997726440429687500e+00) (19, -2.11346673965454101562e+00) (20, 2.82892975956201553345e-02) (21, -1.12581121921539306641e+00) (22, 2.83483434468507766724e-02) (23, -6.66419742628931999207e-03) (24, -2.12388439103960990906e-03) (25, 2.32630896568298339844e+00) (26, 1.22411584854125976562e+00) (27, 8.29322561621665954590e-02) (28, -5.95195172354578971863e-03) (29, 3.12862284481525421143e-02) (30, 2.02344823628664016724e-03) (31, -5.08694052696228027344e-01) (19, -2.05004155635833740234e-01) (20, 1.05157363414764404297e+00) (21, 3.15170615911483764648e-01) (22, 1.21934199333190917969e+00) (23, 8.31048369407653808594e-01) (24, 1.25202643871307373047e+00) (25, -4.98591840267181396484e-01) (26, 8.94661784172058105469e-01) (27, -1.62756037712097167969e+00) (28, -2.53454089164733886719e+00) (29, 2.49172377586364746094e+00) (30, -1.15935230255126953125e+00) (31, -8.56106102466583251953e-01) (19, -1.78439521789550781250e+01) (20, 3.86781603097915649414e-01) (21, 1.89801521301269531250e+01) (22, -5.20268321037292480469e-01) (23, -3.47593463957309722900e-02) (24, -1.31847873330116271973e-01) (25, 8.37037181854248046875e+00) (26, -2.05522098541259765625e+01) (27, 7.69017219543457031250e-01) (28, -1.70233145356178283691e-01) (29, 3.64395678043365478516e-01) (30, 1.69624108821153640747e-02) (31, 1.70983582735061645508e-01) 
