FANN_FLO_2.1
num_layers=3
learning_rate=0.900000
connection_rate=1.000000
network_type=0
learning_momentum=0.000000
training_algorithm=2
train_error_function=1
train_stop_function=0
cascade_output_change_fraction=0.010000
quickprop_decay=-0.000100
quickprop_mu=1.750000
rprop_increase_factor=1.200000
rprop_decrease_factor=0.500000
rprop_delta_min=0.000000
rprop_delta_max=50.000000
rprop_delta_zero=0.100000
cascade_output_stagnation_epochs=12
cascade_candidate_change_fraction=0.010000
cascade_candidate_stagnation_epochs=12
cascade_max_out_epochs=150
cascade_min_out_epochs=50
cascade_max_cand_epochs=150
cascade_min_cand_epochs=50
cascade_num_candidate_groups=2
bit_fail_limit=3.49999994039535522461e-01
cascade_candidate_limit=1.00000000000000000000e+03
cascade_weight_multiplier=4.00000005960464477539e-01
cascade_activation_functions_count=10
cascade_activation_functions=3 5 7 8 10 11 14 15 16 17 
cascade_activation_steepnesses_count=4
cascade_activation_steepnesses=2.50000000000000000000e-01 5.00000000000000000000e-01 7.50000000000000000000e-01 1.00000000000000000000e+00 
layer_sizes=19 13 4 
scale_included=1
scale_mean_in=1.977424 407.904388 90.131477 85.215141 76.715805 69.092964 63.730412 57.982735 55.907040 60.543159 56.660027 48.337318 45.742363 46.915009 47.982735 49.918991 52.407703 57.920319 
scale_deviation_in=17.637814 712.704163 42.090164 43.237232 40.019119 37.630642 36.754280 34.069424 32.658611 37.647041 35.243702 28.629812 29.880768 31.992308 33.910297 35.172764 38.518654 41.412422 
scale_new_min_in=-0.500000 -0.500000 -0.500000 -0.500000 -0.500000 -0.500000 -0.500000 -0.500000 -0.500000 -0.500000 -0.500000 -0.500000 -0.500000 -0.500000 -0.500000 -0.500000 -0.500000 -0.500000 
scale_factor_in=0.500000 0.500000 0.500000 0.500000 0.500000 0.500000 0.500000 0.500000 0.500000 0.500000 0.500000 0.500000 0.500000 0.500000 0.500000 0.500000 0.500000 0.500000 
scale_mean_out=99.051796 3.021248 -0.390438 
scale_deviation_out=35.590256 39.711765 3.278807 
scale_new_min_out=-0.500000 -0.500000 -0.500000 
scale_factor_out=0.500000 0.500000 0.500000 
neurons (num_inputs, activation_function, activation_steepness)=(0, 0, 0.00000000000000000000e+00) (0, 0, 0.00000000000000000000e+00) (0, 0, 0.00000000000000000000e+00) (0, 0, 0.00000000000000000000e+00) (0, 0, 0.00000000000000000000e+00) (0, 0, 0.00000000000000000000e+00) (0, 0, 0.00000000000000000000e+00) (0, 0, 0.00000000000000000000e+00) (0, 0, 0.00000000000000000000e+00) (0, 0, 0.00000000000000000000e+00) (0, 0, 0.00000000000000000000e+00) (0, 0, 0.00000000000000000000e+00) (0, 0, 0.00000000000000000000e+00) (0, 0, 0.00000000000000000000e+00) (0, 0, 0.00000000000000000000e+00) (0, 0, 0.00000000000000000000e+00) (0, 0, 0.00000000000000000000e+00) (0, 0, 0.00000000000000000000e+00) (0, 0, 0.00000000000000000000e+00) (19, 3, 5.00000000000000000000e-01) (19, 3, 5.00000000000000000000e-01) (19, 3, 5.00000000000000000000e-01) (19, 3, 5.00000000000000000000e-01) (19, 3, 5.00000000000000000000e-01) (19, 3, 5.00000000000000000000e-01) (19, 3, 5.00000000000000000000e-01) (19, 3, 5.00000000000000000000e-01) (19, 3, 5.00000000000000000000e-01) (19, 3, 5.00000000000000000000e-01) (19, 3, 5.00000000000000000000e-01) (19, 3, 5.00000000000000000000e-01) (0, 3, 0.00000000000000000000e+00) (13, 0, 5.00000000000000000000e-01) (13, 0, 5.00000000000000000000e-01) (13, 0, 1.00000001490116119385e-01) (0, 0, 0.00000000000000000000e+00) 
connections (connected_to_neuron, weight)=(0, 8.50034236907958984375e+00) (1, 4.36264812946319580078e-01) (2, 2.03003883361816406250e+00) (3, -7.42237329483032226562e-01) (4, 3.21570682525634765625e+00) (5, 4.21928346157073974609e-01) (6, 2.93835196644067764282e-02) (7, 3.25695896148681640625e+00) (8, 3.03816819190979003906e+00) (9, 1.51298415660858154297e+00) (10, -2.93863344192504882812e+00) (11, 3.83750677108764648438e+00) (12, -9.39245641231536865234e-01) (13, 6.43787980079650878906e-01) (14, 3.10163283348083496094e+00) (15, -2.79664087295532226562e+00) (16, 2.43272376060485839844e+00) (17, -1.97363758087158203125e+00) (18, -1.01480836868286132812e+01) (0, 1.19412854003906250000e+03) (1, 1.49489123535156250000e+03) (2, 1.30863113403320312500e+02) (3, -1.39198928833007812500e+02) (4, -1.45429699707031250000e+03) (5, -3.52685729980468750000e+02) (6, 9.64197311401367187500e+01) (7, 3.94903411865234375000e+02) (8, 5.76959133148193359375e+00) (9, -2.96758972167968750000e+02) (10, 3.93098876953125000000e+02) (11, 2.41833639144897460938e+00) (12, 1.71149856567382812500e+02) (13, 6.10450325012207031250e+01) (14, 3.53071594238281250000e+01) (15, -6.26494262695312500000e+02) (16, 1.38280957031250000000e+03) (17, 4.65985137939453125000e+02) (18, -9.09890353679656982422e-01) (0, 7.99843549728393554688e-01) (1, -6.84839010238647460938e-01) (2, -6.07480853796005249023e-02) (3, -4.52473387122154235840e-02) (4, -4.88499216735363006592e-02) (5, 4.00776490569114685059e-02) (6, -8.14454630017280578613e-03) (7, 1.18901506066322326660e-02) (8, -1.11859980970621109009e-02) (9, 4.57389429211616516113e-02) (10, -1.56668089330196380615e-02) (11, -7.88879171013832092285e-02) (12, 5.74715249240398406982e-02) (13, 1.02698253467679023743e-02) (14, -4.76356409490108489990e-03) (15, 5.94013631343841552734e-02) (16, -2.08746809512376785278e-02) (17, -1.35451173409819602966e-02) (18, -3.15371513366699218750e-01) (0, 6.20060980319976806641e-01) (1, 1.54940068721771240234e+00) (2, -2.49315053224563598633e-02) (3, -2.72774901241064071655e-02) (4, -9.98230837285518646240e-03) (5, -2.86634801886975765228e-03) (6, 3.05161084979772567749e-02) (7, 4.32036556303501129150e-02) (8, -7.97655317001044750214e-04) (9, 1.94939207285642623901e-02) (10, -3.02497316151857376099e-02) (11, -2.80136615037918090820e-02) (12, 1.45584633573889732361e-02) (13, 1.34933395311236381531e-02) (14, 2.90989000350236892700e-02) (15, 1.22130950912833213806e-02) (16, -1.00935120135545730591e-02) (17, 1.27138383686542510986e-02) (18, -3.73482078313827514648e-01) (0, -1.43461875915527343750e+01) (1, -5.12285566329956054688e+00) (2, 6.85161733627319335938e+00) (3, -1.07121631503105163574e-01) (4, -1.36390810012817382812e+01) (5, 3.46689271926879882812e+00) (6, 7.00738286972045898438e+00) (7, 1.29335451126098632812e+01) (8, 6.65187478065490722656e-01) (9, -2.09859828948974609375e+01) (10, 1.95924434661865234375e+01) (11, 3.77372121810913085938e+00) (12, -1.27395792007446289062e+01) (13, 6.74956560134887695312e+00) (14, 1.64336929321289062500e+01) (15, -1.00931316614151000977e-01) (16, 7.74818611145019531250e+00) (17, 1.71157646179199218750e+01) (18, -1.52851438522338867188e+01) (0, 6.01144838333129882812e+00) (1, 1.49909620285034179688e+01) (2, 2.38006615638732910156e+00) (3, -1.39408051967620849609e+00) (4, 2.18605732917785644531e+00) (5, -1.18682610988616943359e+00) (6, 1.88838720321655273438e+00) (7, 5.67037940025329589844e-01) (8, 2.79138416051864624023e-01) (9, -1.35673582553863525391e-01) (10, -2.57930231094360351562e+00) (11, -9.81573700904846191406e-01) (12, 8.77600789070129394531e-01) (13, -5.50419449806213378906e-01) (14, 6.61565065383911132812e-01) (15, -1.95983994007110595703e+00) (16, -4.48189675807952880859e-01) (17, 5.11525630950927734375e-01) (18, 1.52731847763061523438e+00) (0, -6.16370320320129394531e-01) (1, 7.73017406463623046875e+00) (2, 1.38395750522613525391e+00) (3, 2.59531252086162567139e-02) (4, -8.03022801876068115234e-01) (5, -7.12411224842071533203e-01) (6, 1.56051981449127197266e+00) (7, 9.90150272846221923828e-01) (8, 1.41025865077972412109e+00) (9, -1.23906874656677246094e+00) (10, 2.56866097450256347656e-01) (11, 5.19051492214202880859e-01) (12, -1.89407384395599365234e+00) (13, 2.03759938478469848633e-01) (14, 1.15065002441406250000e+00) (15, -7.31244385242462158203e-01) (16, 4.15970355272293090820e-01) (17, 1.09956598281860351562e+00) (18, 1.91003188490867614746e-01) (0, 1.02440452575683593750e+01) (1, 5.76205444335937500000e+00) (2, 1.43058741092681884766e+00) (3, -2.36275625228881835938e+00) (4, -2.47887086868286132812e+00) (5, 1.40584647655487060547e+00) (6, -7.15777575969696044922e-01) (7, -6.18549764156341552734e-01) (8, 3.36697053909301757812e+00) (9, 1.79657101631164550781e+00) (10, -4.60553121566772460938e+00) (11, 1.09639227390289306641e+00) (12, -1.64677155017852783203e+00) (13, -1.17255508899688720703e+00) (14, -2.86396682262420654297e-01) (15, -6.38739681243896484375e+00) (16, 3.82483124732971191406e+00) (17, 1.78377592563629150391e+00) (18, 8.00272083282470703125e+00) (0, -1.14611606597900390625e+01) (1, -2.37874622344970703125e+01) (2, -8.80579352378845214844e-01) (3, 1.70886957645416259766e+00) (4, -4.90873962640762329102e-01) (5, -4.92491006851196289062e+00) (6, -1.20079135894775390625e+01) (7, 1.32401208877563476562e+01) (8, 7.54994821548461914062e+00) (9, 5.54562568664550781250e+00) (10, -8.03223896026611328125e+00) (11, 3.34698796272277832031e+00) (12, -2.34998607635498046875e+00) (13, 3.54168272018432617188e+00) (14, 1.72782669067382812500e+01) (15, -7.06409835815429687500e+00) (16, -9.88627374172210693359e-01) (17, 1.42178297042846679688e+01) (18, -2.23523406982421875000e+01) (0, 1.40605363845825195312e+01) (1, 1.85580329895019531250e+01) (2, -7.83619463443756103516e-01) (3, -9.51860332489013671875e+00) (4, 9.37947845458984375000e+00) (5, -1.49014377593994140625e+00) (6, 4.53119659423828125000e+00) (7, -1.16186022758483886719e+00) (8, 5.14604568481445312500e+00) (9, 3.97923588752746582031e+00) (10, -4.68786907196044921875e+00) (11, 1.43852639198303222656e+00) (12, -2.40243053436279296875e+00) (13, 2.51054000854492187500e+00) (14, -7.34922051429748535156e-01) (15, 2.43572402000427246094e+00) (16, -1.81365692615509033203e+00) (17, -1.41673111915588378906e+00) (18, -2.65645599365234375000e+00) (0, -2.08606452941894531250e+01) (1, 1.71372318267822265625e+01) (2, 4.36082065105438232422e-01) (3, -7.48104453086853027344e-01) (4, -2.00478553771972656250e+01) (5, -5.73556721210479736328e-01) (6, 6.08344650268554687500e+00) (7, -3.37416219711303710938e+00) (8, -4.56025028228759765625e+00) (9, -2.03122258186340332031e+00) (10, 3.31583046913146972656e+00) (11, 1.53670594096183776855e-01) (12, -9.99026060104370117188e-01) (13, -3.57531398534774780273e-01) (14, -1.29694712162017822266e+00) (15, 2.01873493194580078125e+01) (16, -7.37008142471313476562e+00) (17, -3.24426651000976562500e+00) (18, 6.25181913375854492188e+00) (0, -1.20861959457397460938e+00) (1, 3.78842663764953613281e+00) (2, -3.36124189198017120361e-02) (3, -9.77046966552734375000e-01) (4, -8.07317078113555908203e-01) (5, 4.45047557353973388672e-01) (6, 1.66802272200584411621e-01) (7, -5.18533922731876373291e-02) (8, -2.34292507171630859375e-01) (9, 6.12869858741760253906e-01) (10, -5.14772951602935791016e-01) (11, -1.30328929424285888672e+00) (12, 1.14281320571899414062e+00) (13, -1.89558848738670349121e-01) (14, -1.70672148466110229492e-01) (15, 5.60913145542144775391e-01) (16, -2.32466727495193481445e-01) (17, -1.51886597275733947754e-01) (18, 1.72906970977783203125e+00) (19, 6.15377090871334075928e-02) (20, 6.45329663529992103577e-03) (21, 3.14177989959716796875e+00) (22, -4.76632404327392578125e+00) (23, -4.90960758179426193237e-03) (24, 6.10271468758583068848e-02) (25, 9.83904376626014709473e-02) (26, -5.31496293842792510986e-02) (27, 4.57228301092982292175e-03) (28, 3.62561829388141632080e-02) (29, 1.85962729156017303467e-02) (30, -6.84512704610824584961e-02) (31, 6.08280360698699951172e-01) (19, -2.14665508270263671875e+00) (20, 3.44401359558105468750e-01) (21, -1.97873592376708984375e+00) (22, -7.44714796543121337891e-01) (23, 1.08808803558349609375e+00) (24, 1.45233488082885742188e+00) (25, -2.57259821891784667969e+00) (26, 1.74031329154968261719e+00) (27, 1.13321483135223388672e+00) (28, 1.04813468456268310547e+00) (29, 1.02209651470184326172e+00) (30, -2.14483523368835449219e+00) (31, 9.86704751849174499512e-02) (19, 3.13245728611946105957e-02) (20, -5.22688999772071838379e-02) (21, -3.25002937316894531250e+01) (22, -1.53932752609252929688e+01) (23, 2.83947736024856567383e-01) (24, -1.13083362579345703125e+00) (25, 1.94205209612846374512e-01) (26, -1.07503366470336914062e+00) (27, 7.04113185405731201172e-01) (28, 3.26048672199249267578e-01) (29, -6.48403584957122802734e-01) (30, 4.68671846389770507812e+00) (31, 1.84520740509033203125e+01) 
