FANN_FLO_2.1
num_layers=3
learning_rate=0.900000
connection_rate=1.000000
network_type=0
learning_momentum=0.000000
training_algorithm=2
train_error_function=1
train_stop_function=0
cascade_output_change_fraction=0.010000
quickprop_decay=-0.000100
quickprop_mu=1.750000
rprop_increase_factor=1.200000
rprop_decrease_factor=0.500000
rprop_delta_min=0.000000
rprop_delta_max=50.000000
rprop_delta_zero=0.100000
cascade_output_stagnation_epochs=12
cascade_candidate_change_fraction=0.010000
cascade_candidate_stagnation_epochs=12
cascade_max_out_epochs=150
cascade_min_out_epochs=50
cascade_max_cand_epochs=150
cascade_min_cand_epochs=50
cascade_num_candidate_groups=2
bit_fail_limit=3.49999994039535522461e-01
cascade_candidate_limit=1.00000000000000000000e+03
cascade_weight_multiplier=4.00000005960464477539e-01
cascade_activation_functions_count=10
cascade_activation_functions=3 5 7 8 10 11 14 15 16 17 
cascade_activation_steepnesses_count=4
cascade_activation_steepnesses=2.50000000000000000000e-01 5.00000000000000000000e-01 7.50000000000000000000e-01 1.00000000000000000000e+00 
layer_sizes=14 11 4 
scale_included=1
scale_mean_in=2.074380 219.787186 29.493801 22.198347 12.460744 5.433884 7.966942 13.706612 20.735537 21.390495 0.074380 0.057851 0.028926 
scale_deviation_in=26.188646 365.286560 51.250912 43.956230 32.416904 21.561533 27.593876 37.353565 46.269093 48.220665 27.120350 26.879200 26.677574 
scale_new_min_in=-0.500000 -0.500000 -0.500000 -0.500000 -0.500000 -0.500000 -0.500000 -0.500000 -0.500000 -0.500000 -0.500000 -0.500000 -0.500000 
scale_factor_in=0.500000 0.500000 0.500000 0.500000 0.500000 0.500000 0.500000 0.500000 0.500000 0.500000 0.500000 0.500000 0.500000 
scale_mean_out=121.384300 0.103306 -0.225207 
scale_deviation_out=39.213600 27.206802 2.296449 
scale_new_min_out=-0.500000 -0.500000 -0.500000 
scale_factor_out=0.500000 0.500000 0.500000 
neurons (num_inputs, activation_function, activation_steepness)=(0, 0, 0.00000000000000000000e+00) (0, 0, 0.00000000000000000000e+00) (0, 0, 0.00000000000000000000e+00) (0, 0, 0.00000000000000000000e+00) (0, 0, 0.00000000000000000000e+00) (0, 0, 0.00000000000000000000e+00) (0, 0, 0.00000000000000000000e+00) (0, 0, 0.00000000000000000000e+00) (0, 0, 0.00000000000000000000e+00) (0, 0, 0.00000000000000000000e+00) (0, 0, 0.00000000000000000000e+00) (0, 0, 0.00000000000000000000e+00) (0, 0, 0.00000000000000000000e+00) (0, 0, 0.00000000000000000000e+00) (14, 3, 5.00000000000000000000e-01) (14, 3, 5.00000000000000000000e-01) (14, 3, 5.00000000000000000000e-01) (14, 3, 5.00000000000000000000e-01) (14, 3, 5.00000000000000000000e-01) (14, 3, 5.00000000000000000000e-01) (14, 3, 5.00000000000000000000e-01) (14, 3, 5.00000000000000000000e-01) (14, 3, 5.00000000000000000000e-01) (14, 3, 5.00000000000000000000e-01) (0, 3, 0.00000000000000000000e+00) (11, 0, 5.00000000000000000000e-01) (11, 0, 5.00000000000000000000e-01) (11, 0, 1.00000001490116119385e-01) (0, 0, 0.00000000000000000000e+00) 
connections (connected_to_neuron, weight)=(0, 3.48658728599548339844e+00) (1, -4.73305702209472656250e+00) (2, -6.03243303298950195312e+00) (3, -1.55752301216125488281e+00) (4, 4.51988652348518371582e-02) (5, -2.26676225662231445312e-01) (6, 7.51870989799499511719e-01) (7, -8.72556328773498535156e-01) (8, 1.04757654666900634766e+00) (9, 1.02078521251678466797e+00) (10, -1.25905036926269531250e+00) (11, 1.50000000000000000000e+03) (12, 1.50000000000000000000e+03) (13, 2.84814524650573730469e+00) (0, 1.50000000000000000000e+03) (1, -1.50000000000000000000e+03) (2, 1.50000000000000000000e+03) (3, 1.50000000000000000000e+03) (4, 1.50000000000000000000e+03) (5, 1.50000000000000000000e+03) (6, 1.50000000000000000000e+03) (7, 1.50000000000000000000e+03) (8, 1.50000000000000000000e+03) (9, 1.50000000000000000000e+03) (10, 1.49997326660156250000e+03) (11, 1.50000000000000000000e+03) (12, 1.50000000000000000000e+03) (13, -8.33294754028320312500e+01) (0, 2.90068298578262329102e-01) (1, 8.10711681842803955078e-01) (2, -1.02697741985321044922e+00) (3, -8.74278068542480468750e-01) (4, -2.01611566543579101562e+00) (5, -6.94300651550292968750e+00) (6, 6.40430784225463867188e+00) (7, 4.14677286148071289062e+00) (8, 1.66128075122833251953e+00) (9, 1.11227361485362052917e-02) (10, 5.94197750091552734375e-01) (11, 7.72886574268341064453e-02) (12, 2.15427294373512268066e-01) (13, -1.34526357054710388184e-01) (0, -7.93129806518554687500e+01) (1, -5.69782352447509765625e+00) (2, -4.53454254150390625000e+02) (3, -3.99620132446289062500e+01) (4, 3.94709992408752441406e+00) (5, 2.22048065185546875000e+02) (6, 3.31966876983642578125e+00) (7, 1.63113128662109375000e+02) (8, 5.06943321228027343750e+01) (9, 1.94294509887695312500e+01) (10, 5.09776496887207031250e+00) (11, -9.11191463470458984375e+00) (12, -1.08388662338256835938e+01) (13, -8.57344512939453125000e+01) (0, 5.35551500320434570312e+00) (1, -1.91218900680541992188e+00) (2, -5.71249313652515411377e-02) (3, 7.27106988430023193359e-01) (4, 4.23002213239669799805e-01) (5, 4.78711217641830444336e-01) (6, 8.91176089644432067871e-02) (7, -1.65522336959838867188e+00) (8, -1.29887033253908157349e-02) (9, -1.25832355022430419922e+00) (10, -1.92401856184005737305e-01) (11, 1.27641126513481140137e-01) (12, 5.88704109191894531250e-01) (13, 1.81821298599243164062e+00) (0, 1.50000000000000000000e+03) (1, -1.50000000000000000000e+03) (2, 1.50000000000000000000e+03) (3, 1.50000000000000000000e+03) (4, 1.50000000000000000000e+03) (5, 1.50000000000000000000e+03) (6, 1.50000000000000000000e+03) (7, 3.52464965820312500000e+02) (8, -1.54851865768432617188e+01) (9, 3.43365168571472167969e+00) (10, -1.31711145019531250000e+03) (11, 3.26770019531250000000e+02) (12, 1.49999975585937500000e+03) (13, -8.96905593872070312500e+01) (0, -1.83723497390747070312e+00) (1, -2.38221025466918945312e+00) (2, 4.28727239370346069336e-01) (3, 6.20239675045013427734e-01) (4, 4.06135499477386474609e-01) (5, -2.96800415962934494019e-02) (6, 1.81091740727424621582e-01) (7, -3.47282052040100097656e-01) (8, -3.30474108457565307617e-01) (9, -1.18483662605285644531e-01) (10, -4.37332600355148315430e-01) (11, 1.96069717407226562500e-01) (12, 3.31453800201416015625e-01) (13, -9.73599433898925781250e-01) (0, 3.66821312904357910156e+00) (1, -3.28757858276367187500e+00) (2, -3.43432068824768066406e-01) (3, -1.01910486221313476562e+01) (4, -5.22238578796386718750e+01) (5, 1.77572652697563171387e-01) (6, 9.12241458892822265625e-01) (7, -2.28804975748062133789e-01) (8, 3.96265697479248046875e+00) (9, 2.70982050895690917969e+00) (10, 9.77355837821960449219e-01) (11, -2.25465464591979980469e+00) (12, 1.32391452789306640625e+01) (13, -8.69916725158691406250e+00) (0, -1.14733982086181640625e+00) (1, -6.32640171051025390625e+00) (2, 8.77385675907135009766e-01) (3, 3.75954359769821166992e-01) (4, 1.52132958173751831055e-01) (5, -1.65840893983840942383e-01) (6, 2.11868047714233398438e-01) (7, 8.78997072577476501465e-02) (8, -2.43077978491783142090e-01) (9, 1.89879462122917175293e-02) (10, 2.00106644630432128906e+00) (11, 4.16429370641708374023e-01) (12, 4.87993359565734863281e-01) (13, -2.20255184173583984375e+00) (0, 8.50809454917907714844e-01) (1, 2.92909450531005859375e+01) (2, -4.62150526046752929688e+00) (3, -2.42541718482971191406e+00) (4, -8.33912048339843750000e+01) (5, -5.22801147460937500000e+02) (6, 2.70448178052902221680e-01) (7, -2.76836705207824707031e+00) (8, 2.24397230148315429688e+00) (9, 5.58202207088470458984e-01) (10, 2.03956031799316406250e+00) (11, -9.76454243063926696777e-02) (12, -6.24050951004028320312e+00) (13, -7.68784103393554687500e+01) (14, 8.25555741786956787109e-01) (15, -1.62384092807769775391e-01) (16, -2.30491590499877929688e+00) (17, 1.19167935848236083984e+00) (18, 1.57400608062744140625e-01) (19, -1.63459479808807373047e-01) (20, 8.84343445301055908203e-01) (21, 6.84912383556365966797e-01) (22, 5.58864653110504150391e-01) (23, -7.21219062805175781250e-01) (24, -2.71258622407913208008e-01) (14, 2.81594932079315185547e-01) (15, -9.83752124011516571045e-03) (16, -4.60994809865951538086e-01) (17, 2.21322193741798400879e-01) (18, -3.39034855365753173828e-01) (19, -2.31877109035849571228e-03) (20, -2.43219089508056640625e+00) (21, 6.26976564526557922363e-02) (22, 3.17527890205383300781e+00) (23, 6.91503167152404785156e-01) (24, -2.35673636198043823242e-01) (14, -1.14049510955810546875e+01) (15, -1.59804487228393554688e+00) (16, 2.27633881568908691406e+00) (17, -1.66714087128639221191e-01) (18, -6.01418304443359375000e+00) (19, -1.07411289215087890625e+00) (20, 1.40038967132568359375e+01) (21, 1.21406459808349609375e+01) (22, 2.35559153556823730469e+00) (23, 2.83426165580749511719e+00) (24, -3.36864399909973144531e+00) 
