FANN_FLO_2.1
num_layers=3
learning_rate=0.700000
connection_rate=1.000000
network_type=0
learning_momentum=0.000000
training_algorithm=3
train_error_function=1
train_stop_function=0
cascade_output_change_fraction=0.010000
quickprop_decay=-0.000100
quickprop_mu=1.750000
rprop_increase_factor=1.200000
rprop_decrease_factor=0.500000
rprop_delta_min=0.000000
rprop_delta_max=50.000000
rprop_delta_zero=0.100000
cascade_output_stagnation_epochs=12
cascade_candidate_change_fraction=0.010000
cascade_candidate_stagnation_epochs=12
cascade_max_out_epochs=150
cascade_min_out_epochs=50
cascade_max_cand_epochs=150
cascade_min_cand_epochs=50
cascade_num_candidate_groups=2
bit_fail_limit=3.49999994039535522461e-01
cascade_candidate_limit=1.00000000000000000000e+03
cascade_weight_multiplier=4.00000005960464477539e-01
cascade_activation_functions_count=10
cascade_activation_functions=3 5 7 8 10 11 14 15 16 17 
cascade_activation_steepnesses_count=4
cascade_activation_steepnesses=2.50000000000000000000e-01 5.00000000000000000000e-01 7.50000000000000000000e-01 1.00000000000000000000e+00 
layer_sizes=19 11 4 
scale_included=1
scale_mean_in=1.977424 407.904388 90.131477 85.215141 76.715805 69.092964 63.730412 57.982735 55.907040 60.543159 56.660027 48.337318 45.742363 46.915009 47.982735 49.918991 52.407703 57.920319 
scale_deviation_in=17.637814 712.704163 42.090164 43.237232 40.019119 37.630642 36.754280 34.069424 32.658611 37.647041 35.243702 28.629812 29.880768 31.992308 33.910297 35.172764 38.518654 41.412422 
scale_new_min_in=-0.500000 -0.500000 -0.500000 -0.500000 -0.500000 -0.500000 -0.500000 -0.500000 -0.500000 -0.500000 -0.500000 -0.500000 -0.500000 -0.500000 -0.500000 -0.500000 -0.500000 -0.500000 
scale_factor_in=0.500000 0.500000 0.500000 0.500000 0.500000 0.500000 0.500000 0.500000 0.500000 0.500000 0.500000 0.500000 0.500000 0.500000 0.500000 0.500000 0.500000 0.500000 
scale_mean_out=0.000000 0.000000 0.000000 
scale_deviation_out=1.000000 1.000000 1.000000 
scale_new_min_out=-1.000000 -1.000000 -1.000000 
scale_factor_out=1.000000 1.000000 1.000000 
neurons (num_inputs, activation_function, activation_steepness)=(0, 0, 0.00000000000000000000e+00) (0, 0, 0.00000000000000000000e+00) (0, 0, 0.00000000000000000000e+00) (0, 0, 0.00000000000000000000e+00) (0, 0, 0.00000000000000000000e+00) (0, 0, 0.00000000000000000000e+00) (0, 0, 0.00000000000000000000e+00) (0, 0, 0.00000000000000000000e+00) (0, 0, 0.00000000000000000000e+00) (0, 0, 0.00000000000000000000e+00) (0, 0, 0.00000000000000000000e+00) (0, 0, 0.00000000000000000000e+00) (0, 0, 0.00000000000000000000e+00) (0, 0, 0.00000000000000000000e+00) (0, 0, 0.00000000000000000000e+00) (0, 0, 0.00000000000000000000e+00) (0, 0, 0.00000000000000000000e+00) (0, 0, 0.00000000000000000000e+00) (0, 0, 0.00000000000000000000e+00) (19, 3, 5.00000000000000000000e-01) (19, 3, 5.00000000000000000000e-01) (19, 3, 5.00000000000000000000e-01) (19, 3, 5.00000000000000000000e-01) (19, 3, 5.00000000000000000000e-01) (19, 3, 5.00000000000000000000e-01) (19, 3, 5.00000000000000000000e-01) (19, 3, 5.00000000000000000000e-01) (19, 3, 5.00000000000000000000e-01) (19, 3, 5.00000000000000000000e-01) (0, 3, 0.00000000000000000000e+00) (11, 0, 5.00000000000000000000e-01) (11, 0, 5.00000000000000000000e-01) (11, 0, 5.00000000000000000000e-01) (0, 0, 0.00000000000000000000e+00) 
connections (connected_to_neuron, weight)=(0, -1.50000000000000000000e+03) (1, -1.50000000000000000000e+03) (2, -1.52925920486450195312e+01) (3, -1.27982959747314453125e+01) (4, -2.95776733398437500000e+02) (5, -6.17810173034667968750e+01) (6, -2.85523166656494140625e+01) (7, -1.29709529876708984375e+01) (8, -8.85408096313476562500e+01) (9, 1.52708236694335937500e+02) (10, 3.72611503601074218750e+01) (11, 7.20878524780273437500e+01) (12, 3.89624389648437500000e+02) (13, 5.62838706970214843750e+01) (14, 2.34615112304687500000e+02) (15, 9.65138397216796875000e+01) (16, -5.23255500793457031250e+01) (17, -1.99241199493408203125e+01) (18, -7.97926391601562500000e+02) (0, -1.49105761718750000000e+03) (1, 1.50000000000000000000e+03) (2, -3.03843750000000000000e+02) (3, -2.95484832763671875000e+02) (4, 5.06915344238281250000e+02) (5, -1.20633384704589843750e+02) (6, -1.32793426513671875000e+02) (7, -7.81742553710937500000e+01) (8, -3.19902648925781250000e+02) (9, 1.67221511840820312500e+02) (10, 4.79580535888671875000e+01) (11, -2.89076324462890625000e+02) (12, 1.01669677734375000000e+03) (13, 3.15436157226562500000e+02) (14, -8.42787109375000000000e+02) (15, 7.61607238769531250000e+02) (16, -7.99390747070312500000e+02) (17, -1.18929797363281250000e+03) (18, -1.49960632324218750000e+03) (0, -4.25951568603515625000e+02) (1, -1.91555191040039062500e+02) (2, 2.16141479492187500000e+02) (3, 1.16410423278808593750e+02) (4, 1.44362503051757812500e+02) (5, 1.70609161376953125000e+02) (6, 2.48155574798583984375e+01) (7, 1.39492248535156250000e+02) (8, -1.64927902221679687500e+02) (9, 1.50610992431640625000e+02) (10, -3.52882122993469238281e+00) (11, 3.91923255920410156250e+01) (12, -9.51415710449218750000e+01) (13, -1.75181304931640625000e+02) (14, -8.92627792358398437500e+01) (15, 1.52480306625366210938e+01) (16, 7.77600784301757812500e+01) (17, 9.14951400756835937500e+01) (18, -3.39293395996093750000e+02) (0, -1.50000000000000000000e+03) (1, -1.50000000000000000000e+03) (2, -9.06127853393554687500e+01) (3, 3.11577873229980468750e+01) (4, 8.96660308837890625000e+01) (5, 1.39412653446197509766e+00) (6, 5.06366395950317382812e+00) (7, 2.34289574623107910156e+00) (8, -4.04968147277832031250e+01) (9, -1.46377197265625000000e+03) (10, 3.96313385009765625000e+02) (11, -1.32914016723632812500e+02) (12, -3.10419647216796875000e+02) (13, 2.00111892700195312500e+02) (14, 3.05045410156250000000e+02) (15, -2.90706729888916015625e+01) (16, -4.65075721740722656250e+01) (17, 1.29233312606811523438e+01) (18, -1.01378338623046875000e+03) (0, 1.50209455490112304688e+01) (1, -1.50174346923828125000e+02) (2, 1.41417157649993896484e+00) (3, -1.49314844608306884766e+00) (4, 6.98657455444335937500e+01) (5, 8.07706146240234375000e+01) (6, 2.78845062255859375000e+01) (7, 4.40874366760253906250e+01) (8, 2.36396789550781250000e+00) (9, 5.05233535766601562500e+01) (10, 5.13685264587402343750e+01) (11, -1.30635013580322265625e+01) (12, 5.24036598205566406250e+01) (13, -1.23671407699584960938e+01) (14, -3.96094551086425781250e+01) (15, 2.51428356170654296875e+01) (16, 7.96050186157226562500e+01) (17, 9.22297058105468750000e+01) (18, -3.34607849121093750000e+02) (0, 6.36967544555664062500e+01) (1, -9.73674621582031250000e+01) (2, 3.69643478393554687500e+01) (3, 1.04409513473510742188e+01) (4, -1.44500167846679687500e+02) (5, -1.11683746337890625000e+02) (6, -4.34522209167480468750e+01) (7, 9.47816085815429687500e+01) (8, 3.55058975219726562500e+01) (9, -7.12449035644531250000e+01) (10, 2.54118671417236328125e+01) (11, -4.95952785015106201172e-01) (12, -4.12475919723510742188e+00) (13, 1.18356637954711914062e+01) (14, 3.64630627632141113281e+00) (15, 5.96393966674804687500e+01) (16, 4.65423851013183593750e+01) (17, 2.54708213806152343750e+01) (18, -1.80265792846679687500e+02) (0, 1.50000000000000000000e+03) (1, -1.50000000000000000000e+03) (2, -1.31848800659179687500e+02) (3, 5.88847198486328125000e+01) (4, -7.81814819335937500000e+02) (5, -2.19469711303710937500e+02) (6, 2.32693195343017578125e+01) (7, -2.45963935852050781250e+01) (8, -3.94225708007812500000e+02) (9, -7.32730224609375000000e+02) (10, 1.27363937377929687500e+02) (11, 2.68819000244140625000e+02) (12, -1.50000000000000000000e+03) (13, 1.09622888183593750000e+03) (14, 9.92889099121093750000e+02) (15, 5.87380249023437500000e+02) (16, 2.54528869628906250000e+02) (17, 8.15302185058593750000e+02) (18, -7.36228515625000000000e+02) (0, -2.86867561340332031250e+01) (1, -6.55262023925781250000e+02) (2, 1.78870086669921875000e+02) (3, -2.19453639984130859375e+01) (4, -3.32272377014160156250e+01) (5, -1.08803129196166992188e+01) (6, -1.36831176757812500000e+02) (7, -5.04215850830078125000e+01) (8, 7.95709533691406250000e+01) (9, -4.28614196777343750000e+01) (10, -2.30064353942871093750e+01) (11, -1.31948385238647460938e+01) (12, 2.13664283752441406250e+01) (13, 4.04269104003906250000e+01) (14, 4.44007635116577148438e+00) (15, 1.89612751007080078125e+01) (16, 1.73411331176757812500e+01) (17, 9.70358352661132812500e+01) (18, -2.45065261840820312500e+02) (0, -7.91200256347656250000e+01) (1, -1.50000000000000000000e+03) (2, -7.45163497924804687500e+01) (3, 1.47559432983398437500e+01) (4, 6.86184501647949218750e+00) (5, 2.45484771728515625000e+01) (6, 2.80718193054199218750e+01) (7, 2.31313018798828125000e+01) (8, -3.73909301757812500000e+01) (9, 1.21765228271484375000e+02) (10, -5.35673866271972656250e+01) (11, 2.39433135986328125000e+01) (12, 1.31721973419189453125e+00) (13, -1.49534130096435546875e+01) (14, -2.25074386596679687500e+01) (15, -6.29581642150878906250e+01) (16, -3.22291908264160156250e+01) (17, -3.91849555969238281250e+01) (18, -3.59269561767578125000e+02) (0, 1.50000000000000000000e+03) (1, -1.50000000000000000000e+03) (2, -5.68150520324707031250e+01) (3, 8.51867370605468750000e+01) (4, 2.01289024353027343750e+01) (5, -2.39094772338867187500e+01) (6, 1.09850311279296875000e+02) (7, 2.27386306762695312500e+02) (8, 1.29684677124023437500e+02) (9, -2.57729003906250000000e+02) (10, 5.30915412902832031250e+01) (11, 9.53564834594726562500e+01) (12, -1.02685791015625000000e+02) (13, 1.43027359008789062500e+02) (14, 1.17396003723144531250e+02) (15, 2.64541137695312500000e+02) (16, 9.23706817626953125000e+01) (17, 1.10860717773437500000e+02) (18, -6.71726135253906250000e+02) (19, 2.14716649055480957031e+00) (20, -1.74006042480468750000e+02) (21, 3.23912620544433593750e+00) (22, 4.03632640838623046875e+00) (23, 6.53603911399841308594e-01) (24, 1.22444808483123779297e+00) (25, 8.01766777038574218750e+00) (26, 6.91054296493530273438e+00) (27, 2.00478343963623046875e+01) (28, 1.00989665985107421875e+01) (29, 2.10000595092773437500e+02) (19, -6.09309732913970947266e-01) (20, 8.96784245967864990234e-01) (21, -1.36804611206054687500e+02) (22, -1.19865119457244873047e+00) (23, -7.15488281250000000000e+01) (24, 7.08162155151367187500e+01) (25, 7.24751293659210205078e-01) (26, 6.97395706176757812500e+01) (27, 6.15213930606842041016e-01) (28, 2.18092322349548339844e+00) (29, -8.24573695659637451172e-01) (19, 4.04733610153198242188e+00) (20, 2.34348607063293457031e+00) (21, 3.69230127334594726562e+00) (22, 3.46258640289306640625e+00) (23, 4.04957246780395507812e+00) (24, -1.82481384277343750000e+00) (25, -9.53543186187744140625e-01) (26, 2.06285297870635986328e-01) (27, -2.46628463268280029297e-01) (28, -6.19732904434204101562e+00) (29, -1.17214798927307128906e+00) 
