FANN_FLO_2.1
num_layers=3
learning_rate=0.900000
connection_rate=1.000000
network_type=0
learning_momentum=0.000000
training_algorithm=2
train_error_function=1
train_stop_function=0
cascade_output_change_fraction=0.010000
quickprop_decay=-0.000100
quickprop_mu=1.750000
rprop_increase_factor=1.200000
rprop_decrease_factor=0.500000
rprop_delta_min=0.000000
rprop_delta_max=50.000000
rprop_delta_zero=0.100000
cascade_output_stagnation_epochs=12
cascade_candidate_change_fraction=0.010000
cascade_candidate_stagnation_epochs=12
cascade_max_out_epochs=150
cascade_min_out_epochs=50
cascade_max_cand_epochs=150
cascade_min_cand_epochs=50
cascade_num_candidate_groups=2
bit_fail_limit=3.49999994039535522461e-01
cascade_candidate_limit=1.00000000000000000000e+03
cascade_weight_multiplier=4.00000005960464477539e-01
cascade_activation_functions_count=10
cascade_activation_functions=3 5 7 8 10 11 14 15 16 17 
cascade_activation_steepnesses_count=4
cascade_activation_steepnesses=2.50000000000000000000e-01 5.00000000000000000000e-01 7.50000000000000000000e-01 1.00000000000000000000e+00 
layer_sizes=11 13 4 
scale_included=1
scale_mean_in=1.261663 412.407715 78.686615 68.721092 57.260651 53.853954 46.906693 40.926979 45.417850 50.819473 
scale_deviation_in=23.571640 682.095764 32.823833 30.115156 27.037861 28.061392 25.187410 23.869864 27.797220 32.960735 
scale_new_min_in=-0.500000 -0.500000 -0.500000 -0.500000 -0.500000 -0.500000 -0.500000 -0.500000 -0.500000 -0.500000 
scale_factor_in=0.500000 0.500000 0.500000 0.500000 0.500000 0.500000 0.500000 0.500000 0.500000 0.500000 
scale_mean_out=98.862068 0.979716 -0.155172 
scale_deviation_out=34.044529 42.056576 3.452556 
scale_new_min_out=-0.500000 -0.500000 -0.500000 
scale_factor_out=0.500000 0.500000 0.500000 
neurons (num_inputs, activation_function, activation_steepness)=(0, 0, 0.00000000000000000000e+00) (0, 0, 0.00000000000000000000e+00) (0, 0, 0.00000000000000000000e+00) (0, 0, 0.00000000000000000000e+00) (0, 0, 0.00000000000000000000e+00) (0, 0, 0.00000000000000000000e+00) (0, 0, 0.00000000000000000000e+00) (0, 0, 0.00000000000000000000e+00) (0, 0, 0.00000000000000000000e+00) (0, 0, 0.00000000000000000000e+00) (0, 0, 0.00000000000000000000e+00) (11, 3, 5.00000000000000000000e-01) (11, 3, 5.00000000000000000000e-01) (11, 3, 5.00000000000000000000e-01) (11, 3, 5.00000000000000000000e-01) (11, 3, 5.00000000000000000000e-01) (11, 3, 5.00000000000000000000e-01) (11, 3, 5.00000000000000000000e-01) (11, 3, 5.00000000000000000000e-01) (11, 3, 5.00000000000000000000e-01) (11, 3, 5.00000000000000000000e-01) (11, 3, 5.00000000000000000000e-01) (11, 3, 5.00000000000000000000e-01) (0, 3, 0.00000000000000000000e+00) (13, 0, 5.00000000000000000000e-01) (13, 0, 5.00000000000000000000e-01) (13, 0, 1.00000001490116119385e-01) (0, 0, 0.00000000000000000000e+00) 
connections (connected_to_neuron, weight)=(0, 6.37044334411621093750e+00) (1, 1.10828981399536132812e+01) (2, -1.23651349544525146484e+00) (3, 1.96232879161834716797e+00) (4, 2.38254666328430175781e+00) (5, 5.42589306831359863281e-01) (6, -8.88937950134277343750e-01) (7, -1.05237448215484619141e+00) (8, 2.67890691757202148438e+00) (9, -7.45429277420043945312e-01) (10, -1.47805064916610717773e-01) (0, 6.76133036613464355469e-01) (1, -5.16791534423828125000e+00) (2, 9.23841118812561035156e-01) (3, -2.62828946113586425781e-01) (4, -9.49377179145812988281e-01) (5, 7.13000297546386718750e-01) (6, 2.26959884166717529297e-01) (7, 7.16433346271514892578e-01) (8, -6.32377743721008300781e-01) (9, 4.09666585922241210938e+00) (10, -3.09243106842041015625e+00) (0, -5.01790428161621093750e+00) (1, 1.03090591430664062500e+01) (2, -5.21643590927124023438e+00) (3, 2.67385816574096679688e+00) (4, 3.36627066135406494141e-01) (5, -9.52975630760192871094e-01) (6, -4.25669193267822265625e-01) (7, -8.78442823886871337891e-01) (8, 6.79284691810607910156e-01) (9, -2.54155111312866210938e+00) (10, -4.36477804183959960938e+00) (0, 9.03345823287963867188e-01) (1, 5.71914243698120117188e+00) (2, -9.91189301013946533203e-01) (3, 9.23071384429931640625e-01) (4, -2.87538576126098632812e+00) (5, -8.32017064094543457031e-01) (6, 4.24047440290451049805e-01) (7, -7.60007858276367187500e-01) (8, 1.27971339225769042969e+00) (9, 5.65134346485137939453e-01) (10, -7.15154930949211120605e-02) (0, 5.47121000289916992188e+00) (1, 6.10328531265258789062e+00) (2, -5.29564380645751953125e+00) (3, 4.97429430484771728516e-01) (4, 5.41974544525146484375e+00) (5, 1.57660222053527832031e+00) (6, -4.30374294519424438477e-01) (7, 5.90997397899627685547e-01) (8, -8.75525474548339843750e-01) (9, -9.64584112167358398438e-01) (10, -4.40446108579635620117e-01) (0, -3.70047539472579956055e-01) (1, 1.12594461441040039062e+01) (2, 9.61266040802001953125e-01) (3, 1.23664498329162597656e+00) (4, -1.73304831981658935547e+00) (5, 2.35412502288818359375e+00) (6, 7.78270363807678222656e-01) (7, 2.42507785558700561523e-01) (8, 2.56620824337005615234e-01) (9, 3.79356527328491210938e+00) (10, -1.29528295993804931641e+00) (0, 1.02637119591236114502e-01) (1, 2.14108514785766601562e+00) (2, -2.42800987325608730316e-03) (3, 1.26761682331562042236e-02) (4, -4.22166194766759872437e-03) (5, -3.68813872337341308594e-02) (6, 8.04908424615859985352e-02) (7, -4.13420647382736206055e-02) (8, -1.19306154549121856689e-01) (9, 1.07006162405014038086e-01) (10, -1.47537660598754882812e+00) (0, 3.30067276954650878906e+00) (1, -3.76746726036071777344e+00) (2, -5.76028525829315185547e-01) (3, -7.08898544311523437500e-01) (4, 1.29321467876434326172e+00) (5, 1.41275322437286376953e+00) (6, 1.21702063083648681641e+00) (7, -1.04945473372936248779e-01) (8, 2.25629672408103942871e-01) (9, 3.19086968898773193359e-01) (10, -3.47510457038879394531e-01) (0, -2.09177398681640625000e+00) (1, -5.05154943466186523438e+00) (2, 2.02546548843383789062e+00) (3, -3.23832249641418457031e+00) (4, 1.59383440017700195312e+00) (5, 2.76284432411193847656e+00) (6, 1.84908032417297363281e+00) (7, -7.25061774253845214844e-01) (8, -3.99534821510314941406e-01) (9, 3.62579226493835449219e-01) (10, -1.74194574356079101562e+00) (0, -9.94333386421203613281e-01) (1, 1.42466983795166015625e+01) (2, -2.39390921592712402344e+00) (3, -2.06226658821105957031e+00) (4, 7.87007391452789306641e-01) (5, 2.24815964698791503906e+00) (6, -2.25391328334808349609e-01) (7, 5.29611468315124511719e-01) (8, 2.94713306427001953125e+00) (9, -1.88000321388244628906e+00) (10, 2.32275557518005371094e+00) (0, -1.18462181091308593750e+00) (1, -3.83170533180236816406e+00) (2, 3.33400845527648925781e-01) (3, -1.03645592927932739258e-01) (4, -8.25444161891937255859e-01) (5, 6.98540210723876953125e-02) (6, 2.44659975171089172363e-01) (7, 8.91749620437622070312e-01) (8, -4.54967588186264038086e-01) (9, 4.49912500381469726562e+00) (10, -2.81652855873107910156e+00) (0, -2.36763787269592285156e+00) (1, 8.08202648162841796875e+00) (2, -1.18848122656345367432e-01) (3, 2.75455594062805175781e+00) (4, 5.26259183883666992188e-01) (5, 1.03033792972564697266e+00) (6, 2.28500843048095703125e-01) (7, -7.41183459758758544922e-01) (8, 1.57397997379302978516e+00) (9, 2.51354789733886718750e+00) (10, -3.76027703285217285156e-01) (11, -3.60484831035137176514e-02) (12, -9.48818400502204895020e-03) (13, 8.75216349959373474121e-02) (14, 1.87278892844915390015e-02) (15, -4.26265820860862731934e-02) (16, -1.05070307850837707520e-01) (17, -4.22143697738647460938e+00) (18, 1.87624901533126831055e-01) (19, 4.82780523598194122314e-02) (20, -2.05376446247100830078e-01) (21, 1.10811196267604827881e-01) (22, 1.93177685141563415527e-02) (23, 9.36937093734741210938e-01) (11, 1.46846437454223632812e+00) (12, 6.23470485210418701172e-01) (13, 1.47557091712951660156e+00) (14, -1.78935599327087402344e+00) (15, -1.89485442638397216797e+00) (16, 1.48513340950012207031e+00) (17, 4.17331188917160034180e-01) (18, 1.75383579730987548828e+00) (19, -1.39370238780975341797e+00) (20, 1.18322908878326416016e+00) (21, 5.33210813999176025391e-01) (22, -2.20742774009704589844e+00) (23, -1.03373259305953979492e-01) (11, -3.46963834762573242188e+00) (12, -2.00518722534179687500e+01) (13, 2.07073450088500976562e+00) (14, -1.94941663742065429688e+00) (15, 5.00036120414733886719e-01) (16, -2.07039332389831542969e+00) (17, -2.59419870376586914062e+00) (18, -5.22502613067626953125e+00) (19, 3.80722403526306152344e+00) (20, 1.15129959583282470703e+00) (21, 1.93522930145263671875e+01) (22, 3.85922670364379882812e+00) (23, 2.04388475418090820312e+00) 
