FANN_FLO_2.1
num_layers=3
learning_rate=0.900000
connection_rate=1.000000
network_type=0
learning_momentum=0.000000
training_algorithm=2
train_error_function=1
train_stop_function=0
cascade_output_change_fraction=0.010000
quickprop_decay=-0.000100
quickprop_mu=1.750000
rprop_increase_factor=1.200000
rprop_decrease_factor=0.500000
rprop_delta_min=0.000000
rprop_delta_max=50.000000
rprop_delta_zero=0.100000
cascade_output_stagnation_epochs=12
cascade_candidate_change_fraction=0.010000
cascade_candidate_stagnation_epochs=12
cascade_max_out_epochs=150
cascade_min_out_epochs=50
cascade_max_cand_epochs=150
cascade_min_cand_epochs=50
cascade_num_candidate_groups=2
bit_fail_limit=3.49999994039535522461e-01
cascade_candidate_limit=1.00000000000000000000e+03
cascade_weight_multiplier=4.00000005960464477539e-01
cascade_activation_functions_count=10
cascade_activation_functions=3 5 7 8 10 11 14 15 16 17 
cascade_activation_steepnesses_count=4
cascade_activation_steepnesses=2.50000000000000000000e-01 5.00000000000000000000e-01 7.50000000000000000000e-01 1.00000000000000000000e+00 
layer_sizes=11 13 4 
scale_included=1
scale_mean_in=2.302714 223.862213 28.269312 21.739040 12.384133 5.490605 6.780793 12.382046 19.536535 21.396660 
scale_deviation_in=26.598589 365.899750 50.435760 43.592075 32.324699 21.666508 25.114504 35.191753 44.921474 48.349239 
scale_new_min_in=-0.500000 -0.500000 -0.500000 -0.500000 -0.500000 -0.500000 -0.500000 -0.500000 -0.500000 -0.500000 
scale_factor_in=0.500000 0.500000 0.500000 0.500000 0.500000 0.500000 0.500000 0.500000 0.500000 0.500000 
scale_mean_out=121.016701 0.000000 -0.235908 
scale_deviation_out=39.335941 26.257437 2.338006 
scale_new_min_out=-0.500000 -0.500000 -0.500000 
scale_factor_out=0.500000 0.500000 0.500000 
neurons (num_inputs, activation_function, activation_steepness)=(0, 0, 0.00000000000000000000e+00) (0, 0, 0.00000000000000000000e+00) (0, 0, 0.00000000000000000000e+00) (0, 0, 0.00000000000000000000e+00) (0, 0, 0.00000000000000000000e+00) (0, 0, 0.00000000000000000000e+00) (0, 0, 0.00000000000000000000e+00) (0, 0, 0.00000000000000000000e+00) (0, 0, 0.00000000000000000000e+00) (0, 0, 0.00000000000000000000e+00) (0, 0, 0.00000000000000000000e+00) (11, 3, 5.00000000000000000000e-01) (11, 3, 5.00000000000000000000e-01) (11, 3, 5.00000000000000000000e-01) (11, 3, 5.00000000000000000000e-01) (11, 3, 5.00000000000000000000e-01) (11, 3, 5.00000000000000000000e-01) (11, 3, 5.00000000000000000000e-01) (11, 3, 5.00000000000000000000e-01) (11, 3, 5.00000000000000000000e-01) (11, 3, 5.00000000000000000000e-01) (11, 3, 5.00000000000000000000e-01) (11, 3, 5.00000000000000000000e-01) (0, 3, 0.00000000000000000000e+00) (13, 0, 5.00000000000000000000e-01) (13, 0, 5.00000000000000000000e-01) (13, 0, 1.00000001490116119385e-01) (0, 0, 0.00000000000000000000e+00) 
connections (connected_to_neuron, weight)=(0, 1.07709861755371093750e+02) (1, -1.63330032348632812500e+02) (2, -1.30116897583007812500e+02) (3, -1.97104911804199218750e+01) (4, -4.63918457031250000000e+02) (5, 3.27509727478027343750e+01) (6, 3.49969177246093750000e+02) (7, 1.50000000000000000000e+03) (8, 2.51786270141601562500e+01) (9, 7.05991058349609375000e+01) (10, 1.16278152465820312500e+02) (0, 3.98132491111755371094e+00) (1, -2.42795348167419433594e+00) (2, -1.92280364036560058594e+00) (3, -6.42330646514892578125e-01) (4, -1.83618915081024169922e+00) (5, -9.62408483028411865234e-02) (6, 6.03088676929473876953e-01) (7, -7.28970706462860107422e-01) (8, -5.12808859348297119141e-01) (9, 2.49739599227905273438e+00) (10, 1.22126221656799316406e+00) (0, -3.98342971801757812500e+01) (1, -2.07609987258911132812e+00) (2, -1.90524883270263671875e+01) (3, -1.49163074493408203125e+01) (4, -5.16573667526245117188e-01) (5, -3.03644806146621704102e-01) (6, 2.89591979980468750000e+00) (7, 6.87026500701904296875e+00) (8, 3.30228385925292968750e+01) (9, 3.93457527160644531250e+01) (10, -1.24085593223571777344e+00) (0, -2.10012388229370117188e+00) (1, 7.74752020835876464844e-01) (2, -1.38367390632629394531e+00) (3, 9.77274999022483825684e-02) (4, 6.11353576183319091797e-01) (5, 2.61247467994689941406e+00) (6, 4.58800286054611206055e-01) (7, 2.74999547004699707031e+00) (8, -5.34932076930999755859e-01) (9, -4.97241353988647460938e+00) (10, -2.05767750740051269531e-01) (0, -1.38175153732299804688e+00) (1, 4.60102498531341552734e-01) (2, 9.93911266326904296875e-01) (3, -3.28606128692626953125e-01) (4, 1.16209948062896728516e+00) (5, 8.91695022583007812500e-01) (6, 1.10949024558067321777e-01) (7, 3.09050440788269042969e-01) (8, 5.95381200313568115234e-01) (9, 4.08624053001403808594e-01) (10, 4.40092897042632102966e-03) (0, 2.95777767896652221680e-01) (1, 2.30310511589050292969e+00) (2, -2.91196274757385253906e+00) (3, -2.41765093803405761719e+00) (4, -2.22001767158508300781e+00) (5, -1.32998779416084289551e-01) (6, 1.50645470619201660156e+00) (7, 1.68356442451477050781e+00) (8, 5.16070795059204101562e+00) (9, 4.56282317638397216797e-01) (10, -5.83917684853076934814e-02) (0, -1.21443724632263183594e+00) (1, -1.80322265625000000000e+00) (2, -2.65877693891525268555e-01) (3, 7.78518438339233398438e-01) (4, 2.53721207380294799805e-01) (5, -1.59477129578590393066e-01) (6, 3.09333860874176025391e-01) (7, -3.72653931379318237305e-01) (8, -2.90740013122558593750e-01) (9, -3.66616666316986083984e-01) (10, 1.23070821166038513184e-01) (0, -2.25349831581115722656e+00) (1, 5.60319232940673828125e+00) (2, 1.53731651306152343750e+01) (3, 2.71815247833728790283e-02) (4, 1.15978217124938964844e+00) (5, -3.58768641948699951172e-01) (6, 5.08372485637664794922e-01) (7, -1.08159053325653076172e+00) (8, 4.86509752273559570312e+00) (9, 1.83302555084228515625e+01) (10, -6.47639608383178710938e+00) (0, 2.34768724441528320312e+00) (1, 2.22731411457061767578e-01) (2, 7.48151242733001708984e-01) (3, -2.00976684689521789551e-01) (4, 6.66749998927116394043e-02) (5, 5.67908644676208496094e-01) (6, 8.05841743946075439453e-01) (7, -8.42658698558807373047e-01) (8, 1.19462990760803222656e+00) (9, 3.02705168724060058594e+00) (10, -1.09775209426879882812e+00) (0, 6.14036917686462402344e-01) (1, -1.37421917915344238281e+00) (2, 3.13354283571243286133e-01) (3, 2.18526557087898254395e-01) (4, 4.09491896629333496094e-01) (5, 2.16364517807960510254e-01) (6, 2.78513461351394653320e-01) (7, -8.28246176242828369141e-02) (8, 2.17687144875526428223e-01) (9, -1.73379145562648773193e-02) (10, -1.47750234603881835938e+00) (0, -4.86304664611816406250e+00) (1, -1.45762264728546142578e+00) (2, -2.15260467529296875000e+01) (3, -9.01248455047607421875e+00) (4, -2.50463546752929687500e+02) (5, -1.75559219360351562500e+02) (6, 2.60210968017578125000e+02) (7, 1.91872940063476562500e+02) (8, 1.46354370117187500000e+01) (9, 1.45190417766571044922e-01) (10, -3.52036595344543457031e+00) (0, 1.00556411743164062500e+01) (1, 3.42006797790527343750e+01) (2, 1.11819624900817871094e+00) (3, -1.15681268274784088135e-01) (4, -1.06021332740783691406e+00) (5, -4.98990726470947265625e+00) (6, 2.38703393936157226562e+00) (7, -7.90972590446472167969e-01) (8, -7.60781228542327880859e-01) (9, 4.32134342193603515625e+00) (10, 1.55661687850952148438e+01) (11, 6.03542737662792205811e-02) (12, 1.86473751068115234375e+00) (13, 1.13723051548004150391e+00) (14, -7.54934012889862060547e-01) (15, 8.50658237934112548828e-01) (16, -1.20430576801300048828e+00) (17, 3.99496585130691528320e-01) (18, 2.58286952972412109375e-01) (19, -1.89643180370330810547e+00) (20, 1.98628664016723632812e+00) (21, -1.56819317489862442017e-02) (22, -9.41098332405090332031e-01) (23, -2.49295473098754882812e-01) (11, 7.90923416614532470703e-01) (12, -1.73669587820768356323e-02) (13, -7.09419026970863342285e-02) (14, -1.58343160152435302734e+00) (15, 2.02162647247314453125e+00) (16, -7.27026462554931640625e-01) (17, -1.55456155538558959961e-01) (18, -1.77785432338714599609e+00) (19, 2.68335771560668945312e+00) (20, -3.79432964324951171875e+00) (21, 9.43465888500213623047e-01) (22, 5.62259316444396972656e-01) (23, -4.19204294681549072266e-01) (11, -7.21374094486236572266e-01) (12, -1.26512694358825683594e+00) (13, -2.46849834918975830078e-01) (14, -4.77304726839065551758e-01) (15, 8.77936267852783203125e+00) (16, 3.21525955200195312500e+00) (17, 1.58011608123779296875e+01) (18, 3.03986314684152603149e-02) (19, 2.17361283302307128906e+00) (20, -2.94451332092285156250e+01) (21, -3.53292405605316162109e-01) (22, -2.33122491836547851562e+00) (23, -4.63506460189819335938e+00) 
